{"learner":{"attributes":{"scikit_learn":"{\"_estimator_type\": \"classifier\"}"},"feature_names":["time_step","f1","f2","f3","f4","f5","f7","f8","f10","f12","f16","f18","f19","f20","f22","f23","f24","f25","f26","f34","f36","f38","f40","f41","f42","f44","f48","f52","f53","f54","f55","f56","f58","f59","f62","f70","f71","f74","f76","f77","f80","f83","f88","f89","f90","f91","f92","f94","f95","f96","f98","f102","f104","f106","f107","f108","f110","f112","f113","f114","f115","f116","f118","f119","f120","f121","f122","f124","f125","f126","f127","f128","f130","f131","f132","f134","f136","f137","f138","f140","f142","f143","f144","f145","f146","f148","f149","f150","f151","f152","f154","f155","f156","f157","f158","f160","f161","f162","f163","f164","fee_ratio","io_ratio","time_step_fraud_rate"],"feature_types":["float","float","float","float","float","float","float","float","float","float","float","float","float","float","float","float","float","float","float","float","float","float","float","float","float","float","float","float","float","float","float","float","float","float","float","float","float","float","float","float","float","float","float","float","float","float","float","float","float","float","float","float","float","float","float","float","float","float","float","float","float","float","float","float","float","float","float","float","float","float","float","float","float","float","float","float","float","float","float","float","float","float","float","float","float","float","float","float","float","float","float","float","float","float","float","float","float","float","float","float","float","float","float"],"gradient_booster":{"model":{"cats":{"enc":[],"feature_segments":[],"sorted_idx":[]},"gbtree_model_param":{"num_parallel_tree":"1","num_trees":"287"},"iteration_indptr":[0,1,2,3,4,5,6,7,8,9,10,11,12,13,14,15,16,17,18,19,20,21,22,23,24,25,26,27,28,29,30,31,32,33,34,35,36,37,38,39,40,41,42,43,44,45,46,47,48,49,50,51,52,53,54,55,56,57,58,59,60,61,62,63,64,65,66,67,68,69,70,71,72,73,74,75,76,77,78,79,80,81,82,83,84,85,86,87,88,89,90,91,92,93,94,95,96,97,98,99,100,101,102,103,104,105,106,107,108,109,110,111,112,113,114,115,116,117,118,119,120,121,122,123,124,125,126,127,128,129,130,131,132,133,134,135,136,137,138,139,140,141,142,143,144,145,146,147,148,149,150,151,152,153,154,155,156,157,158,159,160,161,162,163,164,165,166,167,168,169,170,171,172,173,174,175,176,177,178,179,180,181,182,183,184,185,186,187,188,189,190,191,192,193,194,195,196,197,198,199,200,201,202,203,204,205,206,207,208,209,210,211,212,213,214,215,216,217,218,219,220,221,222,223,224,225,226,227,228,229,230,231,232,233,234,235,236,237,238,239,240,241,242,243,244,245,246,247,248,249,250,251,252,253,254,255,256,257,258,259,260,261,262,263,264,265,266,267,268,269,270,271,272,273,274,275,276,277,278,279,280,281,282,283,284,285,286,287],"tree_info":[0,0,0,0,0,0,0,0,0,0,0,0,0,0,0,0,0,0,0,0,0,0,0,0,0,0,0,0,0,0,0,0,0,0,0,0,0,0,0,0,0,0,0,0,0,0,0,0,0,0,0,0,0,0,0,0,0,0,0,0,0,0,0,0,0,0,0,0,0,0,0,0,0,0,0,0,0,0,0,0,0,0,0,0,0,0,0,0,0,0,0,0,0,0,0,0,0,0,0,0,0,0,0,0,0,0,0,0,0,0,0,0,0,0,0,0,0,0,0,0,0,0,0,0,0,0,0,0,0,0,0,0,0,0,0,0,0,0,0,0,0,0,0,0,0,0,0,0,0,0,0,0,0,0,0,0,0,0,0,0,0,0,0,0,0,0,0,0,0,0,0,0,0,0,0,0,0,0,0,0,0,0,0,0,0,0,0,0,0,0,0,0,0,0,0,0,0,0,0,0,0,0,0,0,0,0,0,0,0,0,0,0,0,0,0,0,0,0,0,0,0,0,0,0,0,0,0,0,0,0,0,0,0,0,0,0,0,0,0,0,0,0,0,0,0,0,0,0,0,0,0,0,0,0,0,0,0,0,0,0,0,0,0,0,0,0,0,0,0,0,0,0,0,0,0,0,0,0,0,0,0,0,0,0,0,0,0],"trees":[{"base_weights":[-2.6778386E-3,1.2443893E0,-1.2226578E0,1.9277401E0,-2.649046E-1,-1.4434956E0,5.8826957E-2,1.9618919E0,-9.4293064E-1,-1.8568091E0,4.8004177E-1,-1.2062095E0,-1.9831547E0,-1.3357532E0,1.4024054E0,1.9715712E0,-2.2104733E-1,1.3709071E0,-1.7261397E0,-1.9810549E0,-7.292511E-1,1.0583847E0,-1.5255374E0,-1.346606E0,2.3901445E-1,-4.0750155E-1,-1.9883521E0,8.652904E-1,-1.7286615E0,2.4058588E-1,-2.3799033E-1,-2.0404367E-1,1.9764286E0,5.6106284E-2,1.9625813E-1,-2.3475464E-1,7.334305E-2,-2.4073173E-1,-5.128079E-1,1.2570736E0,-1.2679094E0,1.5689355E0,-1.6436301E-1,-5.6163764E-1,-2.4000907E-1,-9.639309E-1,-1.8884887E0,-1.9037569E-1,1.6831757E-1,-1.6397189E0,-2.4100095E-1,-1.0523725E0,1.6131636E0,-9.937369E-1,-1.9366362E0,1.9865403E0,8.070132E-1,-1.9291402E-1,1.3957354E-1,2.1289757E-1,-1.6076168E-1,-1.7357914E0,5.449923E-1,1.6796824E0,-2.311985E-1,-7.87999E-1,6.614221E-1,6.196099E-1,-2.3611873E-1,-1.8682156E0,-6.010751E-1,-1.4907912E0,-1.9639047E0,-2.3614475E-1,1.2938906E-1,-2.2695768E-1,1.9825387E-1,1.7875894E0,-1.7224467E-1,4.5468E-1,-1.5606755E0,1.17208436E-1,-1.9647558E0,1.9894434E0,-2.8614542E-1,1.4083596E0,-9.5987636E-1,-2.3495938E-1,5.6106284E-2,1.8395765E-1,-1.844031E-1,1.7422265E0,-5.795619E-1,-3.0741772E-1,-1.681695E0,1.2317541E0,-5.3946924E-1,-2.1358338E-1,1.029915E0,-1.9079175E0,-7.310993E-1,3.9123854E-1,-1.1237699E0,-1.182938E0,-2.3868816E-1,-1.9775742E0,-1.5778346E-1,1.7954828E-1,-1.9037569E-1,2.237316E-1,7.334305E-2,1.1133443E0,-2.0541771E-1,7.792513E-1,-1.8165908E0,1.6831757E-1,-1.6076168E-1,-2.4036714E-1,-7.589975E-1,7.792513E-1,1.9910028E0,1.6831757E-1,-1.844031E-1,1.7610763E0,-2.182567E-1,1.6831757E-1,-2.1277282E-1,1.7641615E0,-1.9521062E-1,-1.26557E0,1.3190511E-1,-1.0153729E0,3.4323737E-1,-2.3683642E-1,1.8618777E-1,-1.992047E-1,1.4018056E0,-2.2845082E-1,4.103378E-1,1.2783762E0,-1.9037569E-1,-1.950539E0,-7.576079E-1,1.7171933E-1,-2.258319E-1,1.2370538E0,-8.36044E-2,-4.711252E-1,-1.6024046E0,-2.375963E-1,-5.996809E-1,-2.4010916E-1,-6.222851E-1,-1.992047E-1,1.4654009E-1,1.4785919E0,-1.6694483E-1,1.6831757E-1,2.67412E-2,-2.3698491E-1,7.334305E-2,1.6831757E-1,-2.0541771E-1,1.6831757E-1,2.67412E-2,5.6106284E-2,1.9921211E0,9.2701904E-2,2.2473928E-1,-1.808569E-1,1.6831757E-1,-1.808569E-1,1.7798004E0,1.1460045E-1,-2.2185113E-1,-1.565174E0,1.1833434E0,7.6273924E-1,-1.2002816E0,-1.875553E-1,1.7954828E-1,1.7882068E0,7.287875E-1,1.1877236E0,-2.1002737E-1,-1.6694483E-1,1.4480246E0,-9.094401E-1,-1.9653809E0,1.2377872E0,-2.258319E-1,1.4763412E0,-9.817332E-1,4.5234415E-1,-1.0927384E0,7.342335E-1,-9.206181E-1,-1.8923928E0,-1.1729698E0,1.3041432E-1,-1.3561561E0,-2.1640997E-1,1.6237028E-1,2.1721582E-1,2.67412E-2,2.403005E-1,7.334305E-2,2.1617615E-1,-1.7224467E-1,-2.3499876E-1,3.7303258E-2,1.4131969E-2,2.1074815E-1,-2.0255971E-1,1.3025768E-1,1.3957354E-1,-2.2017361E-1,2.2524735E-1,5.6106284E-2,-1.9521062E-1,1.3392438E-1,1.8221076E-1,2.6564046E-3,2.0805533E-1,6.571041E-2,-2.0899019E-1,1.1460045E-1,-1.0965234E-1,-2.3881517E-1,5.6106284E-2,1.9825387E-1,-5.978722E-2,1.9614081E-1,1.18334845E-1,-2.2422025E-1,1.4068997E-1,-1.0412344E-1,5.009247E-3,-1.7848969E-1,1.3524562E-1,-1.2946825E-1,-2.1001658E-1,-5.6970492E-2,5.3931803E-2,-2.3418082E-1,1.6016594E-1,-1.5204537E-1,8.2142875E-2,-2.1922049E-1,-2.0687087E-1,8.2964934E-2],"categories":[],"categories_nodes":[],"categories_segments":[],"categories_sizes":[],"default_left":[0,0,0,0,0,0,0,0,0,0,0,0,0,0,0,0,0,0,0,0,0,0,0,0,0,0,0,0,0,0,0,0,0,0,0,0,0,0,0,0,0,0,0,0,0,0,0,0,0,0,0,0,0,0,0,0,0,0,0,0,0,0,0,0,0,0,0,0,0,0,0,0,0,0,0,0,0,0,0,0,0,0,0,0,0,0,0,0,0,0,0,0,0,0,0,0,0,0,0,0,0,0,0,0,0,0,0,0,0,0,0,0,0,0,0,0,0,0,0,0,0,0,0,0,0,0,0,0,0,0,0,0,0,0,0,0,0,0,0,0,0,0,0,0,0,0,0,0,0,0,0,0,0,0,0,0,0,0,0,0,0,0,0,0,0,0,0,0,0,0,0,0,0,0,0,0,0,0,0,0,0,0,0,0,0,0,0,0,0,0,0,0,0,0,0,0,0,0,0,0,0,0,0,0,0,0,0,0,0,0,0,0,0,0,0,0,0,0,0,0,0,0,0,0,0,0,0,0,0,0,0,0,0,0,0,0,0,0,0,0,0,0,0,0,0,0,0,0,0,0,0],"id":0,"left_children":[1,3,5,7,9,11,13,15,17,19,21,23,25,27,29,31,-1,33,35,37,39,41,43,45,-1,47,49,51,53,-1,-1,-1,55,-1,-1,-1,-1,-1,57,59,61,63,65,67,-1,69,71,-1,-1,73,-1,75,77,79,81,83,85,-1,-1,-1,-1,87,89,91,-1,93,95,97,-1,99,101,103,105,-1,107,-1,-1,109,-1,111,113,115,117,119,121,123,125,-1,-1,-1,-1,127,129,131,133,135,137,-1,139,141,143,145,147,149,-1,151,153,-1,-1,-1,-1,155,-1,157,159,-1,-1,-1,161,163,165,-1,-1,167,169,-1,-1,171,-1,173,-1,175,177,-1,179,-1,181,-1,183,185,-1,187,189,-1,-1,191,193,195,197,-1,199,-1,201,-1,-1,203,-1,-1,-1,-1,-1,-1,-1,-1,-1,-1,205,-1,-1,-1,-1,-1,207,-1,-1,209,211,213,215,-1,-1,217,219,221,-1,-1,223,225,227,229,-1,231,233,235,237,239,241,243,245,247,249,-1,-1,-1,-1,-1,-1,-1,-1,-1,-1,-1,-1,-1,-1,-1,-1,-1,-1,-1,-1,-1,-1,-1,-1,-1,-1,-1,-1,-1,-1,-1,-1,-1,-1,-1,-1,-1,-1,-1,-1,-1,-1,-1,-1,-1,-1,-1,-1,-1,-1],"loss_changes":[2.041112E4,6.843047E3,1.9192998E3,4.4958008E2,2.453915E3,7.38374E2,1.871573E3,1.6941797E2,1.008923E2,9.0963135E1,1.6369836E3,1.8025576E3,1.3645996E1,4.253767E2,1.0223927E3,8.347461E1,0E0,2.5698624E0,2.2356812E1,1.2517334E1,7.333549E1,6.8379333E2,1.405274E2,7.968799E2,0E0,1.7122578E1,3.145996E0,1.09129845E2,6.169519E1,0E0,0E0,0E0,5.157422E1,0E0,0E0,0E0,0E0,0E0,1.5583842E1,2.1863922E1,4.610972E1,3.0149683E2,1.6707944E2,1.7317688E2,0E0,7.402749E2,4.4855957E1,0E0,0E0,3.2332108E1,0E0,5.1490128E1,3.135579E1,7.778616E1,1.890625E1,2.9976562E1,4.410221E1,0E0,0E0,0E0,0E0,2.085437E1,2.6103176E1,1.0688159E2,0E0,7.881918E1,9.634631E1,5.7970406E1,0E0,2.779419E1,8.375575E2,3.6502075E1,3.267334E1,0E0,2.4703669E1,0E0,0E0,3.0245514E0,0E0,4.053561E1,4.1946198E1,1.1713415E1,9.571533E0,6.8515625E0,1.5856993E1,1.7839615E1,2.2962543E1,0E0,0E0,0E0,0E0,5.6628662E1,2.5418154E1,5.6245502E1,3.434453E1,4.89162E1,5.9577232E1,0E0,3.4091602E1,2.9121338E1,6.0342537E1,2.2404062E2,3.2954663E2,7.271672E1,0E0,2.3658691E1,2.483194E1,0E0,0E0,0E0,0E0,2.1598392E1,0E0,2.2251725E0,2.3336945E1,0E0,0E0,0E0,2.0825653E1,2.2251725E0,6.658203E0,0E0,0E0,1.1303177E0,1.5152405E1,0E0,0E0,3.968335E1,0E0,2.1239582E1,0E0,7.241019E1,4.234327E1,0E0,2.3586641E1,0E0,2.2172379E1,0E0,4.8379692E1,2.2664597E1,0E0,7.5024414E0,5.558734E1,0E0,0E0,1.0792081E2,1.9413448E2,2.438269E2,7.369348E1,0E0,5.201436E1,0E0,3.675444E1,0E0,0E0,7.3851624E0,0E0,0E0,0E0,0E0,0E0,0E0,0E0,0E0,0E0,0E0,4.2929688E0,0E0,0E0,0E0,0E0,0E0,3.2984375E1,0E0,0E0,3.4511864E1,7.1655235E0,4.131839E1,2.2862347E1,0E0,0E0,5.123947E0,3.283834E1,7.8591213E0,0E0,0E0,9.957504E0,1.7448215E1,7.770996E0,2.118575E0,0E0,5.4625824E1,3.6506546E1,2.2154259E2,5.4795227E1,8.699201E1,1.19634766E2,4.3134033E1,5.6385986E1,5.3486027E1,3.513095E1,0E0,0E0,0E0,0E0,0E0,0E0,0E0,0E0,0E0,0E0,0E0,0E0,0E0,0E0,0E0,0E0,0E0,0E0,0E0,0E0,0E0,0E0,0E0,0E0,0E0,0E0,0E0,0E0,0E0,0E0,0E0,0E0,0E0,0E0,0E0,0E0,0E0,0E0,0E0,0E0,0E0,0E0,0E0,0E0,0E0,0E0,0E0,0E0,0E0,0E0],"parents":[2147483647,0,0,1,1,2,2,3,3,4,4,5,5,6,6,7,7,8,8,9,9,10,10,11,11,12,12,13,13,14,14,15,15,17,17,18,18,19,19,20,20,21,21,22,22,23,23,25,25,26,26,27,27,28,28,32,32,38,38,39,39,40,40,41,41,42,42,43,43,45,45,46,46,49,49,51,51,52,52,53,53,54,54,55,55,56,56,61,61,62,62,63,63,65,65,66,66,67,67,69,69,70,70,71,71,72,72,74,74,77,77,79,79,80,80,81,81,82,82,83,83,84,84,85,85,86,86,91,91,92,92,93,93,94,94,95,95,96,96,98,98,99,99,100,100,101,101,102,102,103,103,105,105,106,106,111,111,113,113,114,114,118,118,119,119,120,120,123,123,124,124,127,127,129,129,131,131,132,132,134,134,136,136,138,138,139,139,141,141,142,142,145,145,146,146,147,147,148,148,150,150,152,152,155,155,166,166,172,172,175,175,176,176,177,177,178,178,181,181,182,182,183,183,186,186,187,187,188,188,189,189,191,191,192,192,193,193,194,194,195,195,196,196,197,197,198,198,199,199,200,200],"right_children":[2,4,6,8,10,12,14,16,18,20,22,24,26,28,30,32,-1,34,36,38,40,42,44,46,-1,48,50,52,54,-1,-1,-1,56,-1,-1,-1,-1,-1,58,60,62,64,66,68,-1,70,72,-1,-1,74,-1,76,78,80,82,84,86,-1,-1,-1,-1,88,90,92,-1,94,96,98,-1,100,102,104,106,-1,108,-1,-1,110,-1,112,114,116,118,120,122,124,126,-1,-1,-1,-1,128,130,132,134,136,138,-1,140,142,144,146,148,150,-1,152,154,-1,-1,-1,-1,156,-1,158,160,-1,-1,-1,162,164,166,-1,-1,168,170,-1,-1,172,-1,174,-1,176,178,-1,180,-1,182,-1,184,186,-1,188,190,-1,-1,192,194,196,198,-1,200,-1,202,-1,-1,204,-1,-1,-1,-1,-1,-1,-1,-1,-1,-1,206,-1,-1,-1,-1,-1,208,-1,-1,210,212,214,216,-1,-1,218,220,222,-1,-1,224,226,228,230,-1,232,234,236,238,240,242,244,246,248,250,-1,-1,-1,-1,-1,-1,-1,-1,-1,-1,-1,-1,-1,-1,-1,-1,-1,-1,-1,-1,-1,-1,-1,-1,-1,-1,-1,-1,-1,-1,-1,-1,-1,-1,-1,-1,-1,-1,-1,-1,-1,-1,-1,-1,-1,-1,-1,-1,-1,-1],"split_conditions":[-3.1710872E-1,-2.5269797E-1,1.4696562E0,1.330591E0,-4.4980425E-1,4.195575E-1,2.3523677E2,6.166369E-1,-8.7534386E-1,-8.454994E-3,6.6137725E-1,4.1396967E-1,-2.7360752E-1,-2.9500625E-1,4.195575E-1,-9.053122E-1,-2.2104733E-1,3.737326E0,2E0,2.863357E-2,-9.937787E-1,0E0,-8.7534386E-1,9.782609E-1,2.3901445E-1,7.5757575E-1,1.4599307E-1,6.787588E-3,-6.1222094E-1,2.4058588E-1,-2.3799033E-1,-2.0404367E-1,5.116183E-4,5.6106284E-2,1.9625813E-1,-2.3475464E-1,7.334305E-2,-2.4073173E-1,2.2530614E-1,-5.673714E-2,4.398625E-1,1.9850025E-2,4.876245E-2,-1.17108695E-1,-2.4000907E-1,-6.0018856E-2,2.1304348E0,-1.9037569E-1,1.6831757E-1,1.2819031E-1,-2.4100095E-1,8.083316E1,1.0974529E-5,-8.7534386E-1,-3.9293385E1,8.9193565E-1,-1.6990758E-1,-1.9291402E-1,1.3957354E-1,2.1289757E-1,-1.6076168E-1,2.310845E1,1.0449921E-1,1.7880948E0,-2.311985E-1,6.3019544E-2,-8.7534386E-1,4.4790845E-2,-2.3611873E-1,8.0792656E1,-1.7926078E-2,2.4496443E0,3.527352E2,-2.3614475E-1,-8.7534386E-1,-2.2695768E-1,1.9825387E-1,4.099784E-2,-1.7224467E-1,0E0,-2.7361256E-1,4.0820524E-1,2.2469442E0,-2.3471968E-2,-3.1965878E0,0E0,-1.5507829E-1,-2.3495938E-1,5.6106284E-2,1.8395765E-1,-1.844031E-1,4.62202E0,8.544344E0,2.5E-1,1.3258849E0,-7.9287535E-1,-3.2170323E-1,-2.1358338E-1,5.6890697E0,1.2E1,-9.110211E-1,-7.875285E-1,-6.0526637E-4,1.25E-1,-2.3868816E-1,6.0419164E0,8.64866E-2,1.7954828E-1,-1.9037569E-1,2.237316E-1,7.334305E-2,1.8486812E0,-2.0541771E-1,-1.5153087E0,-6.192246E-1,1.6831757E-1,-1.6076168E-1,-2.4036714E-1,-1.570563E-1,-3.2173872E-1,-5.2278156E1,1.6831757E-1,-1.844031E-1,-1.4096956E-3,5E-1,1.6831757E-1,-2.1277282E-1,-2.5152912E-2,-1.9521062E-1,-6.659518E-2,1.3190511E-1,1.067441E-1,-1.3650964E-3,-2.3683642E-1,1.985203E0,-1.992047E-1,-2.5536978E-1,-2.2845082E-1,-5.955382E-1,-3.217366E-1,-1.9037569E-1,-3.152849E-1,-7.4572E-3,1.7171933E-1,-2.258319E-1,3.154235E-1,-1.7965544E-2,-2.5271618E-1,-1.6666667E-1,-2.375963E-1,-1.9035201E-1,-2.4010916E-1,1.2376811E1,-1.992047E-1,1.4654009E-1,-5.1086623E-2,-1.6694483E-1,1.6831757E-1,2.67412E-2,-2.3698491E-1,7.334305E-2,1.6831757E-1,-2.0541771E-1,1.6831757E-1,2.67412E-2,5.6106284E-2,-2.3310937E-4,9.2701904E-2,2.2473928E-1,-1.808569E-1,1.6831757E-1,-1.808569E-1,3.5987177E0,1.1460045E-1,-2.2185113E-1,1.2048692E0,-1.4068261E-3,-3.2172757E-1,-2.7608678E-1,-1.875553E-1,1.7954828E-1,8.567434E-2,-3.2172757E-1,-1.3731311E-1,-2.1002737E-1,-1.6694483E-1,-4.8888236E-1,-9.427481E-2,-1.3552446E1,2.5E-1,-2.258319E-1,-7.9277284E-2,6.377847E-2,-1.1924468E0,-7.4572E-3,1.998002E-2,0E0,-8.297448E-3,-3.9293385E1,-1.733056E-2,1E0,-2.1640997E-1,1.6237028E-1,2.1721582E-1,2.67412E-2,2.403005E-1,7.334305E-2,2.1617615E-1,-1.7224467E-1,-2.3499876E-1,3.7303258E-2,1.4131969E-2,2.1074815E-1,-2.0255971E-1,1.3025768E-1,1.3957354E-1,-2.2017361E-1,2.2524735E-1,5.6106284E-2,-1.9521062E-1,1.3392438E-1,1.8221076E-1,2.6564046E-3,2.0805533E-1,6.571041E-2,-2.0899019E-1,1.1460045E-1,-1.0965234E-1,-2.3881517E-1,5.6106284E-2,1.9825387E-1,-5.978722E-2,1.9614081E-1,1.18334845E-1,-2.2422025E-1,1.4068997E-1,-1.0412344E-1,5.009247E-3,-1.7848969E-1,1.3524562E-1,-1.2946825E-1,-2.1001658E-1,-5.6970492E-2,5.3931803E-2,-2.3418082E-1,1.6016594E-1,-1.5204537E-1,8.2142875E-2,-2.1922049E-1,-2.0687087E-1,8.2964934E-2],"split_indices":[30,44,102,1,102,15,22,8,40,23,1,15,43,30,15,50,0,10,38,42,100,95,40,68,0,88,23,32,100,0,0,0,84,0,0,0,0,0,32,1,32,5,32,80,0,10,68,0,0,23,0,51,75,40,101,50,73,0,0,0,0,55,62,80,0,81,40,72,0,26,32,65,55,0,40,0,0,1,0,50,43,8,100,32,61,95,48,0,0,0,0,92,73,3,102,100,30,0,32,38,100,100,15,60,0,100,99,0,0,0,0,55,0,9,100,0,0,0,48,30,18,0,0,15,3,0,0,32,0,82,0,92,42,0,61,0,43,0,100,30,0,30,23,0,0,102,32,44,60,0,43,0,49,0,0,1,0,0,0,0,0,0,0,0,0,0,15,0,0,0,0,0,73,0,0,80,15,30,102,0,0,80,30,43,0,0,84,10,101,3,0,72,8,101,23,22,3,23,101,10,57,0,0,0,0,0,0,0,0,0,0,0,0,0,0,0,0,0,0,0,0,0,0,0,0,0,0,0,0,0,0,0,0,0,0,0,0,0,0,0,0,0,0,0,0,0,0,0,0,0,0],"split_type":[0,0,0,0,0,0,0,0,0,0,0,0,0,0,0,0,0,0,0,0,0,0,0,0,0,0,0,0,0,0,0,0,0,0,0,0,0,0,0,0,0,0,0,0,0,0,0,0,0,0,0,0,0,0,0,0,0,0,0,0,0,0,0,0,0,0,0,0,0,0,0,0,0,0,0,0,0,0,0,0,0,0,0,0,0,0,0,0,0,0,0,0,0,0,0,0,0,0,0,0,0,0,0,0,0,0,0,0,0,0,0,0,0,0,0,0,0,0,0,0,0,0,0,0,0,0,0,0,0,0,0,0,0,0,0,0,0,0,0,0,0,0,0,0,0,0,0,0,0,0,0,0,0,0,0,0,0,0,0,0,0,0,0,0,0,0,0,0,0,0,0,0,0,0,0,0,0,0,0,0,0,0,0,0,0,0,0,0,0,0,0,0,0,0,0,0,0,0,0,0,0,0,0,0,0,0,0,0,0,0,0,0,0,0,0,0,0,0,0,0,0,0,0,0,0,0,0,0,0,0,0,0,0,0,0,0,0,0,0,0,0,0,0,0,0,0,0,0,0,0,0],"sum_hessian":[1.3414038E4,6.6333687E3,6.7806694E3,4.565849E3,2.0675198E3,5.7838193E3,9.968502E2,4.5124814E3,5.3367573E1,6.586126E2,1.4089072E3,4.0196355E3,1.7641838E3,4.891442E2,5.0770605E2,4.5014814E3,1.1E1,1.3306312E1,4.0061264E1,5.925613E2,6.605136E1,1.093927E3,3.149802E2,3.8506633E3,1.6897215E2,6.061262E0,1.7581226E3,7.3909035E1,4.1523514E2,4.3220605E2,7.55E1,5.5E0,4.4959814E3,3.5612624E0,9.745049E0,3.675E1,3.3112624E0,5.86E2,6.561262E0,1.3806312E1,5.224505E1,7.7150616E2,3.2242078E2,1.03230194E2,2.1175E2,2.2584993E3,1.592164E3,3.75E0,2.3112624E0,5.5872524E1,1.70225E3,2.0622524E1,5.328651E1,9.2862625E1,3.2237253E2,4.456746E3,3.923515E1,4E0,2.5612624E0,1.1806312E1,2E0,4.1561264E1,1.0683787E1,7.4825616E2,2.325E1,1.8372029E2,1.387005E2,5.6230198E1,4.7E1,6.455514E2,1.612948E3,2.5710767E2,1.3350563E3,4.725E1,8.622524E0,1.6E1,4.6225247E0,5.078651E1,2.5E0,2.6178837E1,6.6683784E1,4.311262E0,3.1806125E2,4.451185E3,5.561262E0,2.9423885E1,9.811262E0,3.8E1,3.5612624E0,7.4337873E0,3.25E0,7.283224E2,1.9933786E1,1.2034777E2,6.3372524E1,9.402166E1,4.4678837E1,7.75E0,4.8480198E1,6.2311755E2,2.2433786E1,5.565718E2,1.0563762E3,1.5985767E2,9.725E1,1.3249338E3,1.0122524E1,4.8725247E0,3.75E0,4.7475246E1,3.3112624E0,2.0428837E1,5.75E0,6.3725247E0,6.0311264E1,2.3112624E0,2E0,3.1E2,8.061262E0,6.3725247E0,4.4448125E3,2.3112624E0,3.25E0,2.4112623E1,5.311262E0,2.3112624E0,7.5E0,7.240724E2,4.25E0,1.4311262E1,5.6225247E0,5.7367573E1,6.2980198E1,5.5E1,8.372524E0,4.75E0,8.927166E1,1.8E1,2.6678837E1,4.4730198E1,3.75E0,6.001838E2,2.2933786E1,7.6837873E0,1.475E1,1.9953836E2,3.5703342E2,4.4778342E2,6.0859283E2,6.7E1,9.285767E1,1.3110613E3,1.3872524E1,4.75E0,5.3725247E0,1.8178837E1,2.25E0,2.3112624E0,4.061262E0,5.7E1,3.3112624E0,2.3112624E0,5.75E0,2.3112624E0,4.061262E0,3.5612624E0,4.4412515E3,3.0612624E0,2.1051361E1,3E0,2.3112624E0,3E0,7.210724E2,2.8112624E0,1.15E1,4.6122524E1,1.1245049E1,4.9918934E1,1.3061262E1,3.5E0,4.8725247E0,5.5659035E1,3.3612625E1,1.9928837E1,6.75E0,2.25E0,4.2480198E1,9.311262E0,5.908725E2,8.183787E0,1.475E1,1.8041585E2,1.9122524E1,2.3354826E2,1.23485146E2,1.21455444E2,3.2632797E2,3.6124506E2,2.4734778E2,4.7673885E1,4.518379E1,8.75E0,5.1225247E0,1.4117575E1,4.061262E0,4.43794E3,3.3112624E0,7.185724E2,2.5E0,3.825E1,7.8725247E0,4.311262E0,6.9337873E0,5.25E0,4.4668934E1,2.5612624E0,1.05E1,5.209777E1,3.5612624E0,4.25E0,2.9362623E1,1.5367575E1,4.561262E0,3.1796412E1,1.0683787E1,6.5E0,2.8112624E0,9.311262E0,5.815613E2,3.5612624E0,4.6225247E0,1.2622524E1,1.6779332E2,5.8725247E0,1.325E1,1.5143564E2,8.2112625E1,3.1678837E1,9.180631E1,1.00332924E2,2.1122524E1,1.14183784E2,2.1214418E2,7.3725247E0,3.5387253E2,7.9337873E0,2.3941399E2,3.7673885E1,1E1,3.8561264E1,6.6225247E0],"tree_param":{"num_deleted":"0","num_feature":"103","num_nodes":"251","size_leaf_vector":"1"}},{"base_weights":[2.9893215E-3,1.0851843E0,-1.1102443E0,1.7763357E0,-9.753731E-2,-7.277822E-1,-1.6828382E0,1.7799802E0,-1.8652397E-1,-1.62381E0,5.1646036E-1,-1.2019421E0,1.0274376E0,-9.2561185E-1,-1.7182747E0,-1.5072232E-1,1.7818537E0,-1.7706032E0,-6.815217E-1,9.447248E-1,-1.1193068E0,-1.3062866E0,6.8475807E-1,-9.337735E-1,1.7734729E0,-2.4289243E-1,-2.1308222E-1,-1.5803772E0,-2.155528E-1,9.7028685E-1,1.7832117E0,-1.3451703E0,-2.1527608E-1,1.0035104E0,-1.0518159E0,1.3542383E0,-6.4707756E-2,3.5993114E-1,-1.7248333E0,-8.779664E-1,-1.688254E0,1.5507398E0,-9.1744363E-1,5.2431032E-2,-1.4870479E0,2.1504813E-1,2.3831371E-2,-2.0897958E-1,6.5899414E-1,-1.3456426E0,-2.1521534E-1,2.2848912E-2,1.7662384E-1,1.7838331E0,8.218808E-2,-2.0566776E-1,1.1572701E-1,2.0479472E-1,-1.8178767E-1,-1.610811E0,-5.045325E-2,1.5348057E0,2.6546443E-1,2.7809247E-1,-8.144124E-1,-2.1347097E-1,1.1391466E0,-2.155422E-1,-1.021173E0,6.452426E-1,-1.0805302E0,-1.6987184E0,1.8293191E-1,1.6707269E0,-1.6953546E-1,-2.1459612E-1,6.937085E-1,-1.4993067E0,1.0020566E0,9.2998266E-1,-1.600942E0,-1.9459127E-1,1.202367E0,-1.5246351E0,-2.0843104E-1,1.2081721E0,1.784952E0,-2.1287064E-1,7.801633E-5,-2.0025353E-1,9.167347E-1,1.6500474E0,5.413732E-1,-2.1854621E-1,6.591945E-1,8.999979E-2,1.2737583E0,-1.1000236E0,7.244331E-1,1.5520345E0,-1.9641964E-1,8.450182E-1,-2.0565788E-1,1.6989005E0,-5.9289485E-1,-1.6078238E0,-8.474476E-1,-1.7147235E0,-4.6481326E-1,-8.062527E-2,1.7659377E0,1.5080254E0,-1.8053845E-1,-2.1150076E-1,1.0731082E-1,1.5288886E0,-1.9374958E-1,4.4099927E-2,1.818196E-1,-1.7175331E0,1.9805228E-2,1.4538826E0,-1.58018E-1,-1.0592049E0,-1.7614118E0,6.342298E-1,-2.0955645E-1,1.8789582E-1,4.0055685E-2,2.152664E-1,9.922355E-2,-1.6702746E-1,1.6368684E-1,2.1204063E-1,-1.8764552E-1,1.6733866E0,-1.820177E-1,-2.1290733E-1,9.2616695E-1,9.726162E-1,-2.1786937E-1,5.1404124E-1,-4.1734952E-1,1.4616661E0,-1.782484E-1,-1.3528633E0,4.670221E-1,-1.7641693E-1,1.2878983E0,1.6627207E0,-1.5183511E-1,3.8599126E-2,1.623001E-1,2.1851929E-1,-1.6656531E-1,4.4266877E-1,-1.6031405E0,4.0167955E-1,-1.7439268E0,-5.364778E-1,-1.4726412E0,-8.769824E-1,-1.7367631E0,1.9524531E-1,-2.0379688E-1,1.9019601E-1,-1.7201743E-1,6.495917E-2,1.8030394E0,2.0518808E-1,7.137209E-2,1.7460449E0,-1.5977131E-1,-2.1516764E-1,-7.3828286E-1,-1.763082E-1,1.6119112E-1,1.650289E0,1.6480451E-2,3.128022E-1,-1.4168769E0,-2.1720883E-1,7.3699266E-2,-1.9135104E-1,1.2997811E0,1.6859144E0,-1.6287224E-1,1.345244E0,-1.1213787E0,-7.248241E-1,1.225412E0,-7.6209563E-1,1.084228E0,-1.5558641E0,1.5402901E-1,1.582408E0,3.0058257E-2,1.4968482E-1,-1.6645613E-1,-8.880781E-2,-1.6728925E0,1.2332368E0,-1.7680995E-1,2.0266172E-1,1.1000588E-2,1.738283E0,3.6020864E-2,-6.8481284E-1,1.1939218E0,1.7345582E-1,-2.213212E-1,1.4346303E0,-1.9134137E-1,-1.7669033E0,-1.2748423E-1,-3.2606378E-1,-1.4023242E0,-7.228419E-1,-1.6551878E0,7.156934E-1,-2.087231E-1,-1.109223E0,-1.7529932E0,9.685742E-2,2.2037324E-1,6.745624E-2,2.2098933E-1,1.5420167E-1,-1.89772E-1,8.9636064E-1,2.179757E-1,-1.9166787E-1,1.0056633E0,-1.5059541E0,1.818196E-1,-1.646994E-1,1.6328622E0,-3.030654E-2,2.0485325E-1,-1.8378322E-1,1.8580604E-1,1.601384E-1,-2.1489865E-1,-2.2411852E-1,9.2522375E-2,1.7155251E-1,-9.98664E-2,1.7397228E-1,-1.5606534E-1,1.4827713E-1,-1.836979E-1,7.617422E-2,-2.1810102E-1,5.712108E-2,-1.3887314E-1,1.1269808E-1,2.2364622E-1,-2.0167483E-1,1.5215877E-1,-2.1506007E-1,8.627869E-2,3.9377343E-2,1.94913E-1,1.19579755E-1,2.1609718E-1,1.8028963E-1,-2.0407867E-1,1.8954432E-1,4.3321177E-2,2.1965174E-2,2.2318873E-1,-2.9843645E-2,-2.1589844E-1,1.5272789E-1,-1.600121E-1,-2.1749468E-1,-2.1360021E-2,-5.3576354E-2,-2.1345708E-1,-2.1286644E-1,2.6205175E-2,-2.0427121E-1,1.5418795E-1,-1.6686706E-1,1.685078E-1,5.094214E-2,-2.1259338E-1,-2.120776E-1,-9.778182E-2,5.0182164E-2,1.5494794E-1,1.8372506E-1,-1.6555081E-1,-2.1517244E-1,-6.751357E-2,2.220242E-1,3.8970426E-2],"categories":[],"categories_nodes":[],"categories_segments":[],"categories_sizes":[],"default_left":[0,0,0,0,0,0,0,0,0,0,0,0,0,0,0,0,0,0,0,0,0,0,0,0,0,0,0,0,0,0,0,0,0,0,0,0,0,0,0,0,0,0,0,0,0,0,0,0,0,0,0,0,0,0,0,0,0,0,0,0,0,0,0,0,0,0,0,0,0,0,0,0,0,0,0,0,0,0,0,0,0,0,0,0,0,0,0,0,0,0,0,0,0,0,0,0,0,0,0,0,0,0,0,0,0,0,0,0,0,0,0,0,0,0,0,0,0,0,0,0,0,0,0,0,0,0,0,0,0,0,0,0,0,0,0,0,0,0,0,0,0,0,0,0,0,0,0,0,0,0,0,0,0,0,0,0,0,0,0,0,0,0,0,0,0,0,0,0,0,0,0,0,0,0,0,0,0,0,0,0,0,0,0,0,0,0,0,0,0,0,0,0,0,0,0,0,0,0,0,0,0,0,0,0,0,0,0,0,0,0,0,0,0,0,0,0,0,0,0,0,0,0,0,0,0,0,0,0,0,0,0,0,0,0,0,0,0,0,0,0,0,0,0,0,0,0,0,0,0,0,0,0,0,0,0,0,0,0,0,0,0,0,0,0,0,0,0,0,0,0,0,0,0,0,0,0,0,0,0,0,0,0,0,0,0,0,0,0,0,0,0,0,0,0,0,0,0],"id":1,"left_children":[1,3,5,7,9,11,13,15,-1,17,19,21,23,25,27,-1,29,31,33,35,37,39,41,43,45,47,-1,49,-1,51,53,55,-1,57,59,61,63,65,67,69,71,73,75,77,79,-1,-1,-1,81,83,-1,-1,-1,85,-1,-1,-1,-1,-1,87,89,91,93,95,97,-1,99,-1,101,103,105,107,-1,109,-1,-1,111,113,115,117,119,-1,121,123,125,127,129,-1,131,-1,133,135,137,-1,139,141,143,145,147,149,-1,151,-1,153,155,157,159,161,163,165,167,169,-1,-1,-1,171,-1,-1,-1,173,175,177,-1,179,181,183,-1,-1,-1,-1,-1,-1,-1,-1,-1,185,-1,-1,187,189,-1,191,193,195,197,199,201,-1,203,205,-1,-1,-1,-1,-1,207,209,211,213,215,217,219,221,-1,-1,-1,-1,-1,223,-1,-1,225,-1,-1,227,-1,-1,229,-1,231,233,-1,-1,-1,235,237,-1,239,241,243,245,247,249,251,253,255,-1,-1,-1,257,259,261,-1,-1,-1,263,-1,265,267,-1,-1,269,-1,271,273,275,277,279,281,283,-1,285,287,-1,-1,-1,-1,-1,-1,289,-1,-1,291,293,-1,-1,295,-1,-1,-1,-1,-1,-1,-1,-1,-1,-1,-1,-1,-1,-1,-1,-1,-1,-1,-1,-1,-1,-1,-1,-1,-1,-1,-1,-1,-1,-1,-1,-1,-1,-1,-1,-1,-1,-1,-1,-1,-1,-1,-1,-1,-1,-1,-1,-1,-1,-1,-1,-1,-1,-1,-1,-1,-1,-1,-1,-1],"loss_changes":[1.6079227E4,5.5323477E3,1.4395444E3,5.4490234E1,2.3409526E3,3.2854204E3,6.908545E1,2.6451172E1,0E0,9.791577E1,1.2490731E3,6.1261914E2,1.2304382E3,6.847668E1,2.1273438E1,0E0,2.9716797E0,1.5148926E0,6.2337357E1,5.839415E2,3.321263E2,4.803003E2,2.2827554E2,1.2671417E2,9.339966E0,9.169479E1,0E0,3.8480225E1,0E0,3.3211899E0,1.6972656E0,2.2388714E1,0E0,3.4337906E1,4.5263695E1,1.9713782E2,1.05230965E2,1.8184174E2,9.794189E0,4.2965613E2,5.475586E1,4.0135895E1,8.181291E1,1.2583593E2,4.242682E1,0E0,0E0,0E0,5.4670387E1,8.1205444E1,0E0,0E0,0E0,5.830078E-1,0E0,0E0,0E0,0E0,0E0,1.2948059E1,4.833311E1,9.775549E1,1.191357E2,5.2533382E1,5.7254982E1,0E0,9.3877594E1,0E0,3.1941635E1,2.1470706E2,1.4949414E2,2.9832031E1,0E0,1.7285736E1,0E0,0E0,3.9617367E1,2.1310417E1,7.5226105E1,1.8371906E0,2.6940033E1,0E0,2.404628E1,3.625122E1,7.279693E1,2.9629173E0,3.0859375E-1,0E0,1.2322904E1,0E0,4.317221E1,5.9428955E1,8.247405E1,0E0,9.599573E1,5.13161E1,1.2427414E1,4.3717438E1,2.7415207E1,2.3895325E1,0E0,1.4301405E0,0E0,3.35253E1,8.027376E1,1.0330151E2,1.6510632E2,2.6739258E1,5.696334E1,1.621616E1,3.4701843E0,1.7908249E0,0E0,0E0,0E0,2.993068E1,0E0,0E0,0E0,7.4027405E0,2.253714E1,8.135139E0,0E0,5.8906174E1,2.2761902E1,5.616763E1,0E0,0E0,0E0,0E0,0E0,0E0,0E0,0E0,0E0,3.1315186E1,0E0,0E0,6.903599E1,4.758464E1,0E0,9.529976E1,7.094766E1,5.4011154E0,1.1957142E1,3.7834305E1,2.529138E1,0E0,7.8413696E0,6.472473E0,0E0,0E0,0E0,0E0,0E0,3.3291893E1,3.0014847E1,5.282817E1,1.2830566E1,1.03649734E2,3.75213E1,5.7365555E1,1.323584E1,0E0,0E0,0E0,0E0,0E0,8.597107E-1,0E0,0E0,3.2843246E0,0E0,0E0,1.9235313E1,0E0,0E0,1.7097855E0,0E0,3.5151424E1,2.6938889E1,0E0,0E0,0E0,2.7722553E1,1.9820557E1,0E0,3.9308296E1,2.48975E1,2.6358505E1,3.9730835E1,4.961759E1,3.609472E1,2.1298164E1,3.1141483E1,4.587837E0,0E0,0E0,0E0,4.4953423E1,2.108664E1,3.6064548E0,0E0,0E0,0E0,8.0493164E-1,0E0,3.7610146E1,6.8115807E0,0E0,0E0,8.384804E0,0E0,1.2048706E1,1.1723628E1,1.0112969E2,3.849672E1,5.6415977E1,2.811316E1,2.3567781E1,0E0,4.1114326E1,6.7026367E0,0E0,0E0,0E0,0E0,0E0,0E0,7.3995066E-1,0E0,0E0,2.5843918E1,2.3353546E1,0E0,0E0,6.500534E0,0E0,0E0,0E0,0E0,0E0,0E0,0E0,0E0,0E0,0E0,0E0,0E0,0E0,0E0,0E0,0E0,0E0,0E0,0E0,0E0,0E0,0E0,0E0,0E0,0E0,0E0,0E0,0E0,0E0,0E0,0E0,0E0,0E0,0E0,0E0,0E0,0E0,0E0,0E0,0E0,0E0,0E0,0E0,0E0,0E0,0E0,0E0,0E0,0E0,0E0,0E0,0E0,0E0,0E0,0E0,0E0,0E0,0E0,0E0,0E0],"parents":[2147483647,0,0,1,1,2,2,3,3,4,4,5,5,6,6,7,7,9,9,10,10,11,11,12,12,13,13,14,14,16,16,17,17,18,18,19,19,20,20,21,21,22,22,23,23,24,24,25,25,27,27,29,29,30,30,31,31,33,33,34,34,35,35,36,36,37,37,38,38,39,39,40,40,41,41,42,42,43,43,44,44,48,48,49,49,53,53,59,59,60,60,61,61,62,62,63,63,64,64,66,66,68,68,69,69,70,70,71,71,73,73,76,76,77,77,78,78,79,79,80,80,82,82,83,83,84,84,85,85,86,86,88,88,90,90,91,91,92,92,94,94,95,95,96,96,97,97,98,98,99,99,101,101,103,103,104,104,105,105,106,106,107,107,108,108,109,109,110,110,111,111,115,115,119,119,120,120,121,121,123,123,124,124,125,125,135,135,138,138,139,139,141,141,142,142,143,143,144,144,145,145,146,146,148,148,149,149,155,155,156,156,157,157,158,158,159,159,160,160,161,161,162,162,168,168,171,171,174,174,177,177,179,179,180,180,184,184,185,185,187,187,188,188,189,189,190,190,191,191,192,192,193,193,194,194,195,195,199,199,200,200,201,201,205,205,207,207,208,208,211,211,213,213,214,214,215,215,216,216,217,217,218,218,219,219,221,221,222,222,229,229,232,232,233,233,236,236],"right_children":[2,4,6,8,10,12,14,16,-1,18,20,22,24,26,28,-1,30,32,34,36,38,40,42,44,46,48,-1,50,-1,52,54,56,-1,58,60,62,64,66,68,70,72,74,76,78,80,-1,-1,-1,82,84,-1,-1,-1,86,-1,-1,-1,-1,-1,88,90,92,94,96,98,-1,100,-1,102,104,106,108,-1,110,-1,-1,112,114,116,118,120,-1,122,124,126,128,130,-1,132,-1,134,136,138,-1,140,142,144,146,148,150,-1,152,-1,154,156,158,160,162,164,166,168,170,-1,-1,-1,172,-1,-1,-1,174,176,178,-1,180,182,184,-1,-1,-1,-1,-1,-1,-1,-1,-1,186,-1,-1,188,190,-1,192,194,196,198,200,202,-1,204,206,-1,-1,-1,-1,-1,208,210,212,214,216,218,220,222,-1,-1,-1,-1,-1,224,-1,-1,226,-1,-1,228,-1,-1,230,-1,232,234,-1,-1,-1,236,238,-1,240,242,244,246,248,250,252,254,256,-1,-1,-1,258,260,262,-1,-1,-1,264,-1,266,268,-1,-1,270,-1,272,274,276,278,280,282,284,-1,286,288,-1,-1,-1,-1,-1,-1,290,-1,-1,292,294,-1,-1,296,-1,-1,-1,-1,-1,-1,-1,-1,-1,-1,-1,-1,-1,-1,-1,-1,-1,-1,-1,-1,-1,-1,-1,-1,-1,-1,-1,-1,-1,-1,-1,-1,-1,-1,-1,-1,-1,-1,-1,-1,-1,-1,-1,-1,-1,-1,-1,-1,-1,-1,-1,-1,-1,-1,-1,-1,-1,-1,-1,-1],"split_conditions":[-3.9766142E-1,-5.4915268E-2,3.2951373E-1,3.676571E-3,-4.4980425E-1,2.4411108E-1,-2.7451015E-1,-1.7660504E-2,-1.8652397E-1,-8.454994E-3,6.6137725E-1,8.2758623E-1,1.8278322E2,1.9801408E0,7.0076086E-2,-1.5072232E-1,-5.691117E-1,-3.5085568E-1,-9.937787E-1,0E0,-2.1344073E-1,7.992008E-3,-2.5895983E-1,-1.1924468E0,7E0,-6.469316E-2,-2.1308222E-1,1.0217391E0,-2.155528E-1,6E0,5.4329896E0,-3.5897642E-1,-2.1527608E-1,6.324555E-1,2.6421098E-2,2.047478E-3,7.809616E-2,-3.0634293E-1,-4.095912E-1,-2.044237E0,1.1485367E-3,2.6086957E0,8.5047424E-1,1.25E-1,-2.7457312E-1,2.1504813E-1,2.3831371E-2,-2.0897958E-1,-9.5116146E-2,5.869565E-1,-2.1521534E-1,2.2848912E-2,1.7662384E-1,-3.1646612E-1,8.218808E-2,-2.0566776E-1,1.1572701E-1,2.0479472E-1,-1.8178767E-1,2.499833E1,-2.5104123E-1,0E0,-1.8394237E-2,3.4938607E-1,2.9011667E-1,-2.1347097E-1,9.681332E-1,-2.155422E-1,-3.9899927E-2,-5.518763E-1,-5.4221693E-2,5.627269E1,1.8293191E-1,-4.2697642E-2,-1.6953546E-1,-2.1459612E-1,6.324555E-1,2.3666666E1,1.742647E0,-7.842199E-3,4.156779E0,-1.9459127E-1,3.277688E-1,-6.084063E-1,1.0183387E0,-2.5E-1,9.7195655E-3,-2.1287064E-1,2.9682764E-1,-2.0025353E-1,-1.7479898E-1,9.681332E-1,-6.811061E-4,-2.1854621E-1,4.5383662E-2,-1.0942848E-1,-1.2355662E-1,-4.0224138E-1,-2.1930751E-3,1.661899E-2,-1.9641964E-1,3.1034482E-1,-2.0565788E-1,-4.0436927E-3,5.519032E-1,-3.6764707E-2,1.3389704E0,-2.173913E-2,-6.15442E-2,-1.2153222E-1,-2.7447602E-1,1.227671E0,-1.8053845E-1,-2.1150076E-1,1.0731082E-1,1.9460174E-5,-1.9374958E-1,4.4099927E-2,1.818196E-1,3.419859E0,2.5E0,1.6424818E0,-1.58018E-1,-5.2754277E-1,6.5967855E0,-6.5816015E-2,-2.0955645E-1,1.8789582E-1,4.0055685E-2,2.152664E-1,9.922355E-2,-1.6702746E-1,1.6368684E-1,2.1204063E-1,-1.8764552E-1,1.1976135E-2,-1.820177E-1,-2.1290733E-1,8.666807E-2,-2E-1,-2.1786937E-1,-3.0634293E-1,2.5E-1,3.544058E0,-2.7452675E-1,-2.7446726E-1,6.185662E-1,-1.7641693E-1,-6.376111E-1,1E0,-1.5183511E-1,3.8599126E-2,1.623001E-1,2.1851929E-1,-1.6656531E-1,5.859474E-1,-6.398994E-2,-1.01705134E-1,1.3960527E0,9.782609E-1,-3.4596197E-2,-5.007221E-2,-3.42168E0,1.9524531E-1,-2.0379688E-1,1.9019601E-1,-1.7201743E-1,6.495917E-2,-8.192417E-3,2.0518808E-1,7.137209E-2,-5.881735E-3,-1.5977131E-1,-2.1516764E-1,7.002618E-2,-1.763082E-1,1.6119112E-1,3.3088237E-2,1.6480451E-2,-8.167271E-2,6.85E1,-2.1720883E-1,7.3699266E-2,-1.9135104E-1,1.5583757E0,-3.946029E-1,-1.6287224E-1,-1.7965544E-2,-6.392663E-2,0E0,4.9889135E-1,-3.6764707E-2,-8.297448E-3,-5.518079E-1,4.066194E-3,-9.250407E-2,3.0058257E-2,1.4968482E-1,-1.6645613E-1,-1.326067E-3,5.25181E0,-2.3167141E-1,-1.7680995E-1,2.0266172E-1,1.1000588E-2,-1.7210203E-1,3.6020864E-2,-6.398994E-2,-5.2366756E-2,1.7345582E-1,-2.213212E-1,8.402479E-4,-1.9134137E-1,-1.3010046E0,-3.7410483E-1,-3.7931684E-1,-1.8384695E-2,3.448276E-2,7.930079E-1,-6.252836E-2,-2.087231E-1,-3.0670765E-1,6.0419164E0,9.685742E-2,2.2037324E-1,6.745624E-2,2.2098933E-1,1.5420167E-1,-1.89772E-1,3.3944598E-1,2.179757E-1,-1.9166787E-1,7.939632E-2,3.767979E-1,1.818196E-1,-1.646994E-1,2.9411933E-1,-3.030654E-2,2.0485325E-1,-1.8378322E-1,1.8580604E-1,1.601384E-1,-2.1489865E-1,-2.2411852E-1,9.2522375E-2,1.7155251E-1,-9.98664E-2,1.7397228E-1,-1.5606534E-1,1.4827713E-1,-1.836979E-1,7.617422E-2,-2.1810102E-1,5.712108E-2,-1.3887314E-1,1.1269808E-1,2.2364622E-1,-2.0167483E-1,1.5215877E-1,-2.1506007E-1,8.627869E-2,3.9377343E-2,1.94913E-1,1.19579755E-1,2.1609718E-1,1.8028963E-1,-2.0407867E-1,1.8954432E-1,4.3321177E-2,2.1965174E-2,2.2318873E-1,-2.9843645E-2,-2.1589844E-1,1.5272789E-1,-1.600121E-1,-2.1749468E-1,-2.1360021E-2,-5.3576354E-2,-2.1345708E-1,-2.1286644E-1,2.6205175E-2,-2.0427121E-1,1.5418795E-1,-1.6686706E-1,1.685078E-1,5.094214E-2,-2.1259338E-1,-2.120776E-1,-9.778182E-2,5.0182164E-2,1.5494794E-1,1.8372506E-1,-1.6555081E-1,-2.1517244E-1,-6.751357E-2,2.220242E-1,3.8970426E-2],"split_indices":[28,11,28,29,102,28,45,32,0,23,1,0,22,26,41,0,102,53,100,95,2,22,45,101,96,1,0,68,0,67,91,53,0,97,32,94,81,2,28,100,19,68,26,60,45,0,0,0,81,68,0,0,0,2,0,0,0,0,0,55,2,90,32,47,32,0,101,0,2,76,10,42,0,92,0,0,97,90,70,1,29,0,53,46,65,57,16,0,16,0,2,101,41,0,1,53,46,28,42,41,0,0,0,23,2,70,16,68,47,10,45,2,0,0,0,41,0,0,0,10,63,65,0,9,92,10,0,0,0,0,0,0,0,0,0,26,0,0,73,60,0,2,85,47,45,45,81,0,34,96,0,0,0,0,0,76,47,81,32,68,1,11,100,0,0,0,0,0,23,0,0,23,0,0,1,0,0,70,0,81,38,0,0,0,55,2,0,32,47,85,88,70,23,76,16,81,0,0,0,42,92,45,0,0,0,53,0,47,1,0,0,23,0,100,28,2,10,0,76,47,0,28,100,0,0,0,0,0,0,1,0,0,83,79,0,0,1,0,0,0,0,0,0,0,0,0,0,0,0,0,0,0,0,0,0,0,0,0,0,0,0,0,0,0,0,0,0,0,0,0,0,0,0,0,0,0,0,0,0,0,0,0,0,0,0,0,0,0,0,0,0,0,0,0,0,0,0],"split_type":[0,0,0,0,0,0,0,0,0,0,0,0,0,0,0,0,0,0,0,0,0,0,0,0,0,0,0,0,0,0,0,0,0,0,0,0,0,0,0,0,0,0,0,0,0,0,0,0,0,0,0,0,0,0,0,0,0,0,0,0,0,0,0,0,0,0,0,0,0,0,0,0,0,0,0,0,0,0,0,0,0,0,0,0,0,0,0,0,0,0,0,0,0,0,0,0,0,0,0,0,0,0,0,0,0,0,0,0,0,0,0,0,0,0,0,0,0,0,0,0,0,0,0,0,0,0,0,0,0,0,0,0,0,0,0,0,0,0,0,0,0,0,0,0,0,0,0,0,0,0,0,0,0,0,0,0,0,0,0,0,0,0,0,0,0,0,0,0,0,0,0,0,0,0,0,0,0,0,0,0,0,0,0,0,0,0,0,0,0,0,0,0,0,0,0,0,0,0,0,0,0,0,0,0,0,0,0,0,0,0,0,0,0,0,0,0,0,0,0,0,0,0,0,0,0,0,0,0,0,0,0,0,0,0,0,0,0,0,0,0,0,0,0,0,0,0,0,0,0,0,0,0,0,0,0,0,0,0,0,0,0,0,0,0,0,0,0,0,0,0,0,0,0,0,0,0,0,0,0,0,0,0,0,0,0,0,0,0,0,0,0,0,0,0,0,0,0],"sum_hessian":[1.3344682E4,6.766686E3,6.5779956E3,4.2705737E3,2.4961125E3,3.9451306E3,2.6328652E3,4.2663594E3,4.214193E0,7.156093E2,1.7805032E3,3.1063013E3,8.3882947E2,1.1891609E2,2.513949E3,2.2244818E0,4.264135E3,6.183946E2,9.721475E1,1.4114027E3,3.691005E2,2.943801E3,1.6250018E2,2.3108672E2,6.0774274E2,6.6368965E1,5.2547127E1,8.502975E2,1.6636515E3,8.318999E0,4.255816E3,2.3965752E1,5.9442883E2,1.7206438E1,8.0008316E1,1.0038232E3,4.0757947E2,1.0732422E2,2.617763E2,1.3892549E3,1.5545461E3,1.05506546E2,5.6993626E1,8.337574E1,1.4771097E2,6.0373975E2,4.0029707E0,2.4673918E1,4.169505E1,3.9950208E2,4.5079544E2,3.762568E0,4.556431E0,4.2527974E3,3.018589E0,2.0948416E1,3.0173361E0,1.3730037E1,3.4764016E0,5.095491E1,2.9053406E1,8.606752E2,1.4314804E2,2.8012308E2,1.2745638E2,2.8401218E1,7.8923E1,2.3890038E2,2.2875912E1,1.6280821E2,1.2264467E3,1.5499563E3,4.5899E0,1.0181011E2,3.6964395E0,3.705493E1,1.9938696E1,3.143328E1,5.194246E1,6.3246913E0,1.4138628E2,7.664521E0,3.4030525E1,3.4487885E2,5.462323E1,1.0346202E1,4.242451E3,4.6402527E1,4.552386E0,1.0632503E1,1.8420902E1,7.7061957E2,9.005558E1,2.2228008E1,1.2092004E2,2.3653021E2,4.3592873E1,1.07744125E2,1.9712255E1,6.906161E1,9.861393E0,6.076176E0,1.6799736E1,8.775573E1,7.5052475E1,3.7414178E2,8.523048E2,1.5297245E3,2.0231764E1,5.2573338E0,9.655277E1,1.4763525E1,5.175171E0,2.8643917E1,2.7893648E0,4.3560326E1,8.382134E0,4.0267353E0,2.2979558E0,1.3184227E2,9.544008E0,3.1317467E1,2.7130597E0,1.1813505E2,2.2674379E2,3.5597706E1,1.9025526E1,6.834646E0,3.5115561E0,4.2396763E3,2.7748504E0,2.2429414E0,2.3094444E0,1.39580345E1,4.4628677E0,7.65436E2,5.183572E0,1.2359562E1,7.769602E1,1.0782265E2,1.309739E1,1.2883609E2,1.07694115E2,3.859194E1,5.0009317E0,9.289275E1,1.4851377E1,3.7103546E0,1.6001902E1,6.683864E1,2.2229683E0,3.7680192E0,2.308157E0,8.5035095E1,2.72064E0,3.7339264E1,3.771321E1,2.360928E1,3.505325E2,5.7043164E2,2.818732E2,4.0258602E1,1.489466E3,7.372222E0,1.2859542E1,2.2786188E0,2.978715E0,3.2889516E0,9.3263824E1,1.1477938E1,3.285587E0,4.084102E1,2.7193062E0,1.226255E2,9.216767E0,4.438864E0,5.1051435E0,2.7033617E1,4.2838497E0,2.4454521E1,9.368053E1,2.2321336E2,3.5304356E0,7.8877897E0,2.7709915E1,7.62719E2,2.7170165E0,6.478025E1,1.2915767E1,1.3734281E1,9.408836E1,3.968358E1,8.915251E1,3.5411346E1,7.228277E1,3.481903E1,3.7729096E0,2.2782154E0,2.722716E0,1.9025007E1,7.3867744E1,1.0895665E1,3.9557106E0,1.1741674E1,4.2602267E0,6.3070194E1,3.7684438E0,1.4966285E1,2.237298E1,2.3091984E0,3.5404015E1,1.572163E1,7.887649E0,3.45528E2,5.0044856E0,4.60017E2,1.1041464E2,5.615982E1,2.2571338E2,1.41101E1,2.6148504E1,3.9299107E1,1.4501667E3,3.057276E0,9.020655E1,3.2916968E0,3.7549324E1,2.5443869E0,6.672381E0,5.829514E0,2.1204103E1,6.1829505E0,1.8271572E1,9.138257E1,2.2979558E0,2.7332907E0,2.4976625E1,5.003783E0,7.577152E2,3.704582E0,6.1075672E1,2.5300043E0,1.0385763E1,7.664217E0,6.070064E0,8.6117195E1,7.971165E0,7.3841257E0,3.2299454E1,8.4939804E1,4.2127056E0,3.5160356E0,3.1895311E1,5.8577526E1,1.3705245E1,1.1622292E1,2.3196741E1,8.647362E0,1.0377646E1,7.0835434E1,3.032315E0,3.788173E0,7.1074924E0,5.5605416E0,5.750965E1,4.5783496E0,1.0387935E1,1.4789132E1,7.5838475E0,4.281892E0,1.1439738E1,5.4884205E0,3.400396E2,2.2886996E0,2.7157857E0,4.1091965E1,4.1892505E2,3.1259756E1,7.9154884E1,2.6212736E1,2.9947083E1,2.2316895E2,2.5444286E0,3.2066236E0,1.0903476E1,1.1864671E1,2.7434437E1,1.4402079E3,9.958879E0,3.5345445E0,2.2949693E0,1.529867E1,2.9729013E0,6.990502E1,2.1477549E1,2.1195065E1,3.7815597E0],"tree_param":{"num_deleted":"0","num_feature":"103","num_nodes":"297","size_leaf_vector":"1"}},{"base_weights":[2.135428E-3,1.019356E0,-9.958314E-1,1.573709E0,-2.1983445E-1,-6.3892365E-1,-1.6306758E0,1.6010985E0,-7.606499E-1,5.0335115E-1,-1.0024396E0,-9.9340373E-1,1.5878948E0,4.555068E-1,-1.6371061E0,1.6136813E0,-1.247148E0,9.200612E-1,-1.9431128E-1,8.242479E-1,-1.9787182E-1,-7.0387423E-1,-1.5083572E0,-1.5620947E0,-5.6708056E-1,-1.7435712E-1,1.967047E-1,1.7717811E-1,-1.5699421E-1,1.2094495E-1,-1.9779858E-1,-1.8040086E-1,1.6180453E0,-1.9679801E-1,1.4437734E-1,-1.5217933E-1,1.7602918E-1,1.0322148E0,-1.9637792E-1,-4.5851523E-1,-1.5212799E0,-1.190903E0,-1.9776931E-1,-1.5946677E0,-1.9690931E-1,-8.113807E-1,5.9357744E-1,1.5266313E-1,-1.3465832E-1,1.6235878E0,-8.119886E-1,-1.9345783E-1,1.1945248E0,-9.464983E-1,3.1113514E-1,-1.9618624E-1,-9.611106E-1,-1.3826206E0,-1.00511484E-1,-1.609955E0,-9.932265E-1,1.3453076E0,-1.2325801E0,-5.335302E-1,-1.4724134E0,9.781761E-1,-1.324421E0,1.6261796E0,-1.7540593E-1,-1.8149579E-1,1.441144E-1,1.313542E0,-1.2039714E0,-1.4847473E0,-6.4269686E-1,-1.3245947E0,6.3646656E-1,1.2431765E-1,-1.8751681E-1,-1.4651256E0,3.7661444E-2,8.537954E-1,-1.7326912E-1,-1.6260989E0,-1.0863886E0,1.82641E-1,-1.359077E0,1.8583916E-1,5.4847203E-2,-1.8989713E-1,1.518351E-1,-7.1135364E-2,-1.1584533E0,-8.3850294E-1,-1.5849599E0,-1.9540207E-1,1.1932108E0,-1.4712785E0,2.0825016E-1,5.170328E-1,1.6302177E0,1.3788173E0,-2.3698738E-1,2.8909054E-1,-1.9227903E-1,-1.9774495E-1,-1.3455059E-1,-3.9232728E-1,-1.9433714E-1,-1.9225822E-1,-1.364907E-1,1.1713798E0,-5.228212E-1,-1.0909154E0,-1.9601975E-1,-1.3989319E-1,1.4087617E-1,-1.4449297E-1,2.0325202E-1,-4.8168766E-1,-1.9675866E-1,1.4194249E0,-1.93895E-1,1.3321471E-1,-1.9202745E-1,-1.0246065E0,1.9952303E-1,-8.31542E-1,-1.5646061E0,4.1004512E-1,-1.2659802E0,-1.6045191E0,2.0769846E-1,1.3362802E0,-1.2482853E0,1.6593723E-1,-1.9467331E-1,1.1600344E0,-1.9035073E-1,3.091647E-2,1.6313657E0,1.4202411E0,-1.0554143E0,-1.0429024E0,1.308354E0,-1.4908046E-1,1.6623098E-1,1.4773911E-1,-1.6674039E-1,-8.633373E-2,-1.4003186E0,1.499568E-1,-1.5585862E-1,1.3433746E0,-1.8623707E-1,-1.0303274E0,1.0955538E0,-1.933276E-1,4.6587667E-1,-1.655968E-1,1.6192257E-1,2.076762E-1,7.628741E-2,1.6963989E-1,-1.3918275E-1,-4.769646E-3,-1.4114678E0,-2.4035659E-2,8.468113E-1,-1.2245088E0,2.855541E-1,1.19713865E-1,-1.6013527E0,1.075131E0,-1.739482E-1,6.388917E-1,-1.5192485E0,-1.061745E0,-1.977435E-1,1.7135699E-1,-1.3662092E-1,1.4273944E0,-9.099295E-1,1.3793468E-1,-2.0777065E-1,1.7230771E-1,3.5877116E-2,1.3241228E-1,1.9681579E-1,-6.206236E-2,1.7527989E-1,1.1650506E-1,-1.9920379E-1,-2.1351336E-1,8.124624E-2,1.885477E-1,6.411562E-2,-9.545687E-2,6.292996E-2,5.804686E-3,-1.9528371E-1,-1.5348814E-1,1.7168656E-1,8.655405E-2,-1.9922145E-1,2.3492726E-2,1.8169801E-1,-8.353455E-3,1.4941575E-1,-1.9690244E-1,9.086084E-2,-1.8659377E-1,2.2404488E-2,1.8586343E-2,-1.329052E-1,1.2677203E-1,-8.800804E-2,1.5131885E-1,-1.6520554E-1,-7.732156E-2,1.7527258E-1,-1.9741897E-1,-9.457794E-3,-1.5167332E-1,1.927437E-1,1.6074154E-1,9.131752E-3,-2.0033221E-1,2.1376094E-2,3.7001923E-4,-1.965998E-1,1.7768738E-1,-1.6357629E-1,1.3793468E-1,-1.8982515E-1],"categories":[],"categories_nodes":[],"categories_segments":[],"categories_sizes":[],"default_left":[0,0,0,0,0,0,0,0,0,0,0,0,0,0,0,0,0,0,0,0,0,0,0,0,0,0,0,0,0,0,0,0,0,0,0,0,0,0,0,0,0,0,0,0,0,0,0,0,0,0,0,0,0,0,0,0,0,0,0,0,0,0,0,0,0,0,0,0,0,0,0,0,0,0,0,0,0,0,0,0,0,0,0,0,0,0,0,0,0,0,0,0,0,0,0,0,0,0,0,0,0,0,0,0,0,0,0,0,0,0,0,0,0,0,0,0,0,0,0,0,0,0,0,0,0,0,0,0,0,0,0,0,0,0,0,0,0,0,0,0,0,0,0,0,0,0,0,0,0,0,0,0,0,0,0,0,0,0,0,0,0,0,0,0,0,0,0,0,0,0,0,0,0,0,0,0,0,0,0,0,0,0,0,0,0,0,0,0,0,0,0,0,0,0,0,0,0,0,0,0,0,0,0,0,0,0,0,0,0,0,0,0,0,0,0,0,0,0,0,0,0,0,0,0,0,0,0,0,0,0,0,0,0,0,0],"id":2,"left_children":[1,3,5,7,9,11,13,15,17,19,21,23,25,27,29,31,33,35,-1,37,-1,39,41,43,45,-1,-1,-1,-1,47,-1,-1,49,-1,-1,-1,-1,51,-1,53,55,57,-1,59,61,63,65,-1,-1,67,69,-1,71,73,75,-1,77,79,81,83,85,87,89,91,93,95,97,99,-1,-1,-1,101,103,105,107,109,111,-1,-1,113,115,117,-1,119,121,-1,123,-1,-1,-1,-1,125,127,129,131,-1,133,135,-1,137,139,141,143,145,-1,-1,147,149,-1,-1,151,153,155,157,-1,-1,-1,-1,-1,159,-1,161,-1,163,-1,165,167,169,171,173,175,177,179,181,183,-1,-1,185,-1,-1,187,189,191,193,195,-1,-1,-1,-1,197,199,-1,-1,201,-1,203,205,-1,207,-1,-1,-1,-1,-1,-1,209,211,213,215,217,219,-1,221,223,-1,225,227,229,-1,-1,-1,231,233,-1,-1,-1,-1,-1,-1,-1,-1,-1,-1,-1,-1,-1,-1,-1,-1,-1,-1,-1,-1,-1,-1,-1,-1,-1,-1,-1,-1,-1,-1,-1,-1,-1,-1,-1,-1,-1,-1,-1,-1,-1,-1,-1,-1,-1,-1,-1,-1,-1,-1,-1,-1],"loss_changes":[1.3041684E4,4.3708086E3,1.4683081E3,2.8227344E2,1.1139364E3,3.2796228E3,3.2044434E1,1.5773926E2,7.536166E1,7.05425E2,1.4170587E2,8.678242E2,7.775232E1,1.6084595E1,1.4125488E1,6.1137695E1,2.0475552E1,2.304927E1,0E0,4.5602313E2,0E0,1.1888849E2,1.2699036E1,6.792871E1,5.816036E2,0E0,0E0,0E0,0E0,9.1095915E0,0E0,0E0,5.951465E1,0E0,0E0,0E0,0E0,3.53547E2,0E0,1.7307425E2,6.5736084E0,2.2096252E1,0E0,1.2180908E1,6.0602135E1,3.1025916E2,2.646004E2,0E0,0E0,3.676465E1,1.641084E1,0E0,2.2268909E2,4.512317E1,9.623465E1,0E0,3.0311018E1,1.0646072E1,2.2889061E1,1.057373E1,3.8541637E1,1.969984E0,2.1265621E1,3.4491068E2,3.4386597E1,1.684114E2,2.9450493E1,1.8453125E1,0E0,0E0,0E0,7.506299E1,2.212946E1,2.0939453E1,4.349872E1,9.424759E0,9.375003E1,0E0,0E0,3.3625183E0,9.397496E0,2.0008389E1,0E0,8.582031E0,6.3317406E1,0E0,1.2490402E1,0E0,0E0,0E0,0E0,1.7755956E2,6.610376E1,4.1937164E1,1.5199951E1,0E0,9.797507E1,2.5821014E1,0E0,2.4865387E1,6.350586E0,7.296448E1,3.9578735E1,1.5917512E1,0E0,0E0,2.121556E1,4.4868683E1,0E0,0E0,1.2235094E1,5.0228104E1,4.0645023E1,2.3647495E1,0E0,0E0,0E0,0E0,0E0,1.5733171E1,0E0,9.546242E-1,0E0,1.095631E1,0E0,6.000836E1,7.760268E1,1.2475763E2,2.2759338E1,2.6871042E1,2.8978264E1,6.35083E0,1.0496981E1,5.470166E1,1.9899313E1,0E0,0E0,2.7437897E0,0E0,0E0,4.8242188E-1,4.59541E1,1.65957E1,2.709103E1,1.3426762E0,0E0,0E0,0E0,0E0,4.8879185E1,1.08485565E1,0E0,0E0,2.2360489E1,0E0,4.1572365E1,4.14225E0,0E0,3.3486056E0,0E0,0E0,0E0,0E0,0E0,0E0,5.4127834E1,2.4263397E1,7.6921936E1,4.5180542E1,7.751822E1,8.165784E1,0E0,1.2070923E1,2.11766E1,0E0,2.8379939E0,1.2734444E1,1.7337421E1,0E0,0E0,0E0,3.4385925E1,1.651636E1,0E0,0E0,0E0,0E0,0E0,0E0,0E0,0E0,0E0,0E0,0E0,0E0,0E0,0E0,0E0,0E0,0E0,0E0,0E0,0E0,0E0,0E0,0E0,0E0,0E0,0E0,0E0,0E0,0E0,0E0,0E0,0E0,0E0,0E0,0E0,0E0,0E0,0E0,0E0,0E0,0E0,0E0,0E0,0E0,0E0,0E0,0E0,0E0,0E0,0E0,0E0,0E0],"parents":[2147483647,0,0,1,1,2,2,3,3,4,4,5,5,6,6,7,7,8,8,9,9,10,10,11,11,12,12,13,13,14,14,15,15,16,16,17,17,19,19,21,21,22,22,23,23,24,24,29,29,32,32,37,37,39,39,40,40,41,41,43,43,44,44,45,45,46,46,49,49,50,50,52,52,53,53,54,54,56,56,57,57,58,58,59,59,60,60,61,61,62,62,63,63,64,64,65,65,66,66,67,67,71,71,72,72,73,73,74,74,75,75,76,76,79,79,80,80,81,81,83,83,84,84,86,86,91,91,92,92,93,93,94,94,96,96,97,97,99,99,100,100,101,101,102,102,103,103,106,106,107,107,110,110,111,111,112,112,113,113,119,119,121,121,123,123,125,125,126,126,127,127,128,128,129,129,130,130,131,131,132,132,133,133,134,134,137,137,140,140,141,141,142,142,143,143,144,144,149,149,150,150,153,153,155,155,156,156,158,158,165,165,166,166,167,167,168,168,169,169,170,170,172,172,173,173,175,175,176,176,177,177,181,181,182,182],"right_children":[2,4,6,8,10,12,14,16,18,20,22,24,26,28,30,32,34,36,-1,38,-1,40,42,44,46,-1,-1,-1,-1,48,-1,-1,50,-1,-1,-1,-1,52,-1,54,56,58,-1,60,62,64,66,-1,-1,68,70,-1,72,74,76,-1,78,80,82,84,86,88,90,92,94,96,98,100,-1,-1,-1,102,104,106,108,110,112,-1,-1,114,116,118,-1,120,122,-1,124,-1,-1,-1,-1,126,128,130,132,-1,134,136,-1,138,140,142,144,146,-1,-1,148,150,-1,-1,152,154,156,158,-1,-1,-1,-1,-1,160,-1,162,-1,164,-1,166,168,170,172,174,176,178,180,182,184,-1,-1,186,-1,-1,188,190,192,194,196,-1,-1,-1,-1,198,200,-1,-1,202,-1,204,206,-1,208,-1,-1,-1,-1,-1,-1,210,212,214,216,218,220,-1,222,224,-1,226,228,230,-1,-1,-1,232,234,-1,-1,-1,-1,-1,-1,-1,-1,-1,-1,-1,-1,-1,-1,-1,-1,-1,-1,-1,-1,-1,-1,-1,-1,-1,-1,-1,-1,-1,-1,-1,-1,-1,-1,-1,-1,-1,-1,-1,-1,-1,-1,-1,-1,-1,-1,-1,-1,-1,-1,-1,-1],"split_conditions":[-3.1710872E-1,-2.5269797E-1,3.7707627E-2,1.4205999E0,0E0,2.2800515E0,-3.115264E-1,2.047478E-3,-2.3657951E-1,1.9850025E-2,1E0,-5.4221693E-2,4.3462512E-1,8.3892286E-2,2.9190262E-3,-6.643568E-1,1.1812474E0,-3.3046508E-1,-1.9431128E-1,6.210618E-1,-1.9787182E-1,-7.642171E-4,-5.024752E0,1.2771646E0,3E0,-1.7435712E-1,1.967047E-1,1.7717811E-1,-1.5699421E-1,5.853985E-1,-1.9779858E-1,-1.8040086E-1,3.604767E-1,-1.9679801E-1,1.4437734E-1,-1.5217933E-1,1.7602918E-1,-5.86375E-1,-1.9637792E-1,2.6421098E-2,7.307229E0,1.0670162E0,-1.9776931E-1,3.866531E1,-8.192417E-3,8.4782606E-1,1.173913E0,1.5266313E-1,-1.3465832E-1,1.1547005E0,1.1962905E0,-1.9345783E-1,1.4205999E0,-1.873222E-2,-3.6971423E-1,-1.9618624E-1,8.363709E-5,-7.425066E-2,-1.3548171E-3,8.2758623E-1,-1.2487257E-3,-4.2812384E-4,3.410554E1,-2.3310937E-4,-1.857261E-2,-2.992422E-1,8.6206895E-1,-3.1149128E-1,-1.7540593E-1,-1.8149579E-1,1.441144E-1,2.7232955E0,-3.8258575E-2,8.365436E0,1.5354584E-1,3.4525234E-1,-1.3361196E-1,1.2431765E-1,-1.8751681E-1,-1.2352638E-2,2.5E0,-4.450555E-2,-1.7326912E-1,-4.664054E-1,-2.0936303E0,1.82641E-1,1.6999264E-1,1.8583916E-1,5.4847203E-2,-1.8989713E-1,1.518351E-1,-7.778638E-2,1E0,-1.6119527E0,5.255805E1,-1.9540207E-1,1E0,-1.4129366E-3,2.0825016E-1,-1.3595904E-1,-2.2570979E-2,1.9627032E0,-8.402479E-3,-7.624084E-2,-1.9227903E-1,-1.9774495E-1,-7.160346E-2,-2.8455835E-2,-1.9433714E-1,-1.9225822E-1,3.53049E-1,3.1856306E-2,3.8427877E-1,3.2023232E-2,-1.9601975E-1,-1.3989319E-1,1.4087617E-1,-1.4449297E-1,2.0325202E-1,1E0,-1.9675866E-1,-1.1981394E-1,-1.93895E-1,-1.9708452E-1,-1.9202745E-1,-1.0384278E0,5.715476E0,1.3043478E-1,-5.7970284E1,-6.370802E-2,-7.632694E-2,1.0434783E0,-1.0767429E-2,3.4544718E-1,-6.896552E-1,1.6593723E-1,-1.9467331E-1,-3.5739285E-1,-1.9035073E-1,3.091647E-2,-1.8284686E-2,-3.6971423E-1,-7.140963E-2,8.695652E-2,-1.9532324E-1,-1.4908046E-1,1.6623098E-1,1.4773911E-1,-1.6674039E-1,1.1339446E-1,-2.8591516E0,1.499568E-1,-1.5585862E-1,-1.0039805E-1,-1.8623707E-1,-1.3888236E-3,3.0109944E0,-1.933276E-1,9.563759E-1,-1.655968E-1,1.6192257E-1,2.076762E-1,7.628741E-2,1.6963989E-1,-1.3918275E-1,4.8885E-1,2.8253207E0,2.523697E-1,1E0,-1.5697983E-1,6.2068963E-1,1.19713865E-1,2.6666667E0,-8.208189E-2,-1.739482E-1,1E0,8.2733554E-1,-7.6475926E-2,-1.977435E-1,1.7135699E-1,-1.3662092E-1,3.3042276E-1,-7.586207E-1,1.3793468E-1,-2.0777065E-1,1.7230771E-1,3.5877116E-2,1.3241228E-1,1.9681579E-1,-6.206236E-2,1.7527989E-1,1.1650506E-1,-1.9920379E-1,-2.1351336E-1,8.124624E-2,1.885477E-1,6.411562E-2,-9.545687E-2,6.292996E-2,5.804686E-3,-1.9528371E-1,-1.5348814E-1,1.7168656E-1,8.655405E-2,-1.9922145E-1,2.3492726E-2,1.8169801E-1,-8.353455E-3,1.4941575E-1,-1.9690244E-1,9.086084E-2,-1.8659377E-1,2.2404488E-2,1.8586343E-2,-1.329052E-1,1.2677203E-1,-8.800804E-2,1.5131885E-1,-1.6520554E-1,-7.732156E-2,1.7527258E-1,-1.9741897E-1,-9.457794E-3,-1.5167332E-1,1.927437E-1,1.6074154E-1,9.131752E-3,-2.0033221E-1,2.1376094E-2,3.7001923E-4,-1.965998E-1,1.7768738E-1,-1.6357629E-1,1.3793468E-1,-1.8982515E-1],"split_indices":[30,44,33,1,95,41,30,94,2,5,96,10,13,33,41,9,48,2,0,76,0,15,99,32,90,0,0,0,0,1,0,0,9,0,0,0,0,76,0,32,12,78,0,26,23,68,68,0,0,97,82,0,1,32,2,0,33,27,15,0,15,41,78,15,32,2,0,2,0,0,0,82,78,78,82,43,2,0,0,73,63,1,0,2,101,0,23,0,0,0,0,72,63,61,78,0,96,15,0,74,32,2,23,27,0,0,1,1,0,0,43,41,92,92,0,0,0,0,0,4,0,10,0,2,0,61,69,68,101,1,27,68,43,44,0,0,0,2,0,0,32,2,82,68,43,0,0,0,0,2,66,0,0,82,0,15,82,0,1,0,0,0,0,0,0,2,48,27,96,48,0,0,90,12,0,4,76,72,0,0,0,30,0,0,0,0,0,0,0,0,0,0,0,0,0,0,0,0,0,0,0,0,0,0,0,0,0,0,0,0,0,0,0,0,0,0,0,0,0,0,0,0,0,0,0,0,0,0,0,0,0,0,0,0,0],"split_type":[0,0,0,0,0,0,0,0,0,0,0,0,0,0,0,0,0,0,0,0,0,0,0,0,0,0,0,0,0,0,0,0,0,0,0,0,0,0,0,0,0,0,0,0,0,0,0,0,0,0,0,0,0,0,0,0,0,0,0,0,0,0,0,0,0,0,0,0,0,0,0,0,0,0,0,0,0,0,0,0,0,0,0,0,0,0,0,0,0,0,0,0,0,0,0,0,0,0,0,0,0,0,0,0,0,0,0,0,0,0,0,0,0,0,0,0,0,0,0,0,0,0,0,0,0,0,0,0,0,0,0,0,0,0,0,0,0,0,0,0,0,0,0,0,0,0,0,0,0,0,0,0,0,0,0,0,0,0,0,0,0,0,0,0,0,0,0,0,0,0,0,0,0,0,0,0,0,0,0,0,0,0,0,0,0,0,0,0,0,0,0,0,0,0,0,0,0,0,0,0,0,0,0,0,0,0,0,0,0,0,0,0,0,0,0,0,0,0,0,0,0,0,0,0,0,0,0,0,0,0,0,0,0,0,0],"sum_hessian":[1.284502E4,6.361136E3,6.4838833E3,4.3948335E3,1.9663025E3,4.1517744E3,2.3321094E3,4.344177E3,5.065698E1,1.0221325E3,9.4417004E2,3.5821045E3,5.696698E2,6.95166E0,2.3251577E3,4.325501E3,1.8675474E1,1.699953E1,3.3657444E1,8.8962537E2,1.3250714E2,5.9526685E2,3.4890317E2,1.5336448E3,2.0484597E3,7.6046004E0,5.620652E2,4.5123425E0,2.4393182E0,4.4287977E0,2.320729E3,5.5822473E0,4.319919E3,1.6421173E1,2.2543006E0,3.1063259E0,1.3893206E1,8.206304E2,6.899502E1,4.5903897E2,1.3622787E2,1.05364586E2,2.4353859E2,1.4977408E3,3.590387E1,1.6925133E3,3.559463E2,2.2884996E0,2.1402981E0,4.3104194E3,9.4995E0,4.7071312E1,7.735591E2,2.8078345E2,1.782555E2,1.1297366E2,2.3254213E1,8.938117E1,1.5983419E1,1.4589802E3,3.8760723E1,1.4304329E1,2.159954E1,1.1929078E3,4.996054E2,2.969014E2,5.9044914E1,4.3072646E3,3.154628E0,7.246581E0,2.252919E0,7.3741943E2,3.6139618E1,9.990074E1,1.8088272E2,2.906225E1,1.4919325E2,5.1730027E0,1.808121E1,8.444419E1,4.93698E0,9.535927E0,6.447493E0,1.4132961E3,4.5684017E1,4.5345345E0,3.422619E1,1.1124397E1,3.1799316E0,1.9313686E1,2.2858553E0,6.862499E2,5.06658E2,7.660171E1,4.230037E2,2.2189732E1,2.7471164E2,5.6827965E1,2.2169487E0,1.6092787E1,4.291172E3,7.077355E2,2.9683979E1,7.5504208E0,2.8589197E1,8.940173E1,1.0499004E1,1.4486224E2,3.6020473E1,2.3402523E1,5.659728E0,1.0208105E2,4.7112198E1,2.7701717E1,5.6742474E1,2.3846145E0,2.5523655E0,2.6236281E0,6.912298E0,7.5357237E0,1.4057605E3,7.576344E0,3.810767E1,4.690158E0,2.953603E1,1.5111583E2,5.351341E2,2.8240128E2,2.242567E2,1.9547989E1,5.705372E1,4.1854205E2,4.461647E0,2.5993253E2,1.4779129E1,2.310791E0,5.4517174E1,1.2656232E1,3.4365547E0,3.7703009E0,4.287402E3,6.9630286E2,1.1432577E1,1.972321E1,9.96077E0,3.0897412E0,4.4606795E0,5.0339108E0,5.4650936E0,1.1196036E2,3.290189E1,2.5453951E0,3.114333E0,9.647689E1,5.6041555E0,3.6141838E1,1.0970362E1,2.0818169E1,6.88355E0,5.2279797E0,2.307744E0,4.610957E0,2.9653864E0,2.3111212E0,2.379037E0,4.1837326E1,1.09278496E2,3.984733E2,1.3666077E2,2.0884029E2,7.356099E1,2.8079555E0,2.2144875E2,1.4693225E1,4.854765E0,6.516846E0,5.0536873E1,2.7615896E1,3.9092615E2,2.3105273E0,2.1511195E0,2.501501E2,9.782428E0,2.2146904E0,1.2564439E1,9.14604E0,3.510192E0,1.0044244E1,4.2773574E3,1.1606781E1,6.846961E2,2.464401E0,8.968176E0,1.3828183E1,5.8950253E0,6.7326374E0,3.2281325E0,5.1702404E1,6.0257954E1,4.4296374E0,2.8472254E1,2.4399805E0,9.403691E1,9.443934E0,2.6697903E1,3.901836E0,7.068526E0,4.606371E0,2.277179E0,1.2927182E1,2.8910145E1,1.0072622E2,8.552279E0,3.4269778E2,5.5775524E1,1.21257996E2,1.5402781E1,1.1166666E1,1.9767363E2,4.126806E1,3.2292934E1,2.1625992E2,5.188839E0,2.4353776E0,1.2257847E1,2.3062758E0,4.2105703E0,4.6645664E1,3.8912094E0,9.962027E0,1.765387E1,2.4651945E2,3.6306384E0,2.2146904E0,7.5677376E0],"tree_param":{"num_deleted":"0","num_feature":"103","num_nodes":"235","size_leaf_vector":"1"}},{"base_weights":[5.494429E-3,9.537528E-1,-9.3337977E-1,1.5170091E0,-3.299254E-2,-6.078329E-1,-1.5187378E0,1.5187061E0,-1.319394E-1,8.9300203E-1,-9.048776E-1,-9.460163E-1,1.4762204E0,7.019469E-2,-1.5220733E0,1.5193032E0,6.416298E-2,1.0572166E0,-1.4133081E0,-2.8142503E-1,-1.2310085E0,-6.657419E-1,-1.481307E0,1.8311605E-1,-1.6404185E-1,-1.0862482E0,-1.8390518E-1,1.8323545E-1,7.643334E-2,-1.7905235E-1,1.156405E0,-1.8274873E-1,5.7606373E-2,2.2877027E-1,-1.2058051E0,-9.7076416E-1,-1.5199338E0,-7.828588E-1,1.02613E0,-1.1980188E0,-1.5119195E0,-1.744797E-1,1.420171E-1,1.26882E0,-3.8574106E-1,6.939948E-1,-1.1736326E0,-1.3937956E0,-9.857899E-2,-6.115616E-1,-1.4496596E0,-9.651272E-1,-1.8592389E-1,-5.5929345E-1,-1.3464906E0,1.3195184E0,-1.8137558E-1,-1.4367138E0,-5.1679665E-1,-1.8387575E-1,-1.1127052E0,1.2992107E0,-1.8319781E-1,1.1792355E0,-1.810257E-1,9.675118E-1,-1.2116828E0,-1.8162908E-1,1.4171624E-1,-1.8765867E-1,-8.964855E-1,9.813232E-1,-8.7144166E-1,-1.0008188E0,2.3872091E-1,-1.4901385E0,9.776681E-2,1.5968165E-1,-1.73489E-1,-3.4828404E-1,-1.3188152E0,-6.368669E-1,-1.5064459E0,1.4563665E0,-1.6800553E-1,-1.8539561E-1,8.646493E-2,4.666936E-1,-1.7499074E-1,-1.2944064E0,1.21711664E-1,1.4345046E0,7.728738E-1,-1.386575E-1,1.4753574E0,-1.8197602E-1,1.1337662E0,-1.8671277E-1,1.07747264E-1,1.2525393E0,-1.5806255E-1,8.344745E-1,-1.325425E0,1.9605383E-2,1.8250984E-1,-1.7776619E-1,1.6244839E-1,-1.23275E0,5.5613565E-1,5.793714E-1,-1.0598261E0,-1.1611917E0,-1.8514147E-1,1.3833609E-1,-1.255367E-1,-1.1596955E0,-1.0046249E-1,-1.3653609E0,-9.895387E-3,-1.2944629E0,1.9192414E-1,-6.445053E-1,-1.5398518E0,3.9383805E-1,1.5557089E0,1.0810729E0,-1.5544294E-1,1.5091932E-1,-1.8136762E-1,1.4563525E0,-1.9129422E-1,-4.2446327E-1,1.2024144E0,6.412978E-2,1.8897039E-1,1.3874707E0,5.29164E-2,7.3041864E-2,1.7785789E-1,1.5384766E-1,4.143304E-2,-1.9150087E-1,2.3492549E-2,-1.3281604E0,3.8678694E-1,1.059251E0,-5.40413E-1,-9.350032E-1,9.1744655E-1,-1.8677454E-1,1.489731E-1,-1.7758897E-1,1.5275887E-1,-1.2705661E0,6.681011E-1,-1.317234E0,4.6116874E-2,-1.4610542E0,-7.325638E-1,-1.6358818E-1,1.9345663E-1,3.8804504E-1,-1.8587606E-1,-1.1147635E0,9.0752035E-1,-1.7548683E-1,8.3283263E-1,-1.5542052E0,4.4157363E-2,-1.6355902E-1,1.6562693E-1,6.488564E-1,1.597684E0,1.1635971E-1,1.8995221E-1,1.4649364E-1,-1.2515493E-1,1.774753E-1,1.793674E-2,1.7564751E-2,-2.2348803E-1,1.5429898E-1,-1.6168006E-1,1.8409458E-1,5.1140983E-2,-1.8566573E-1,1.354307E-1,-1.8851185E-1,-1.0447112E-1,1.4602552E-1,-1.3384147E-1,1.12639265E-2,1.7955655E-1,-1.6459143E-1,1.2404346E-1,5.026162E-2,-1.8982346E-1,-1.5563345E-1,1.3106914E-1,-1.6325356E-1,6.3988134E-2,1.6716176E-1,-1.5412073E-1,-1.9062056E-1,2.63879E-2,-4.8937015E-2,5.2608196E-2,-8.866193E-2,-1.8671477E-1,-1.8028907E-1,3.7023503E-2,-1.4140445E-1,1.7966136E-1,-1.9048542E-1,8.139932E-2,1.5915658E-1,-1.5905213E-1,2.931733E-2,1.8592916E-1,-1.343745E-1,-1.8938702E-1,2.5088599E-2,1.3062236E-1,8.38698E-2,1.9450487E-1,1.5300353E-1,-1.3617863E-1],"categories":[],"categories_nodes":[],"categories_segments":[],"categories_sizes":[],"default_left":[0,0,0,0,0,0,0,0,0,0,0,0,0,0,0,0,0,0,0,0,0,0,0,0,0,0,0,0,0,0,0,0,0,0,0,0,0,0,0,0,0,0,0,0,0,0,0,0,0,0,0,0,0,0,0,0,0,0,0,0,0,0,0,0,0,0,0,0,0,0,0,0,0,0,0,0,0,0,0,0,0,0,0,0,0,0,0,0,0,0,0,0,0,0,0,0,0,0,0,0,0,0,0,0,0,0,0,0,0,0,0,0,0,0,0,0,0,0,0,0,0,0,0,0,0,0,0,0,0,0,0,0,0,0,0,0,0,0,0,0,0,0,0,0,0,0,0,0,0,0,0,0,0,0,0,0,0,0,0,0,0,0,0,0,0,0,0,0,0,0,0,0,0,0,0,0,0,0,0,0,0,0,0,0,0,0,0,0,0,0,0,0,0,0,0,0,0,0,0,0,0,0,0,0,0,0,0,0,0,0,0,0,0,0,0,0,0,0,0,0,0,0,0,0,0,0,0],"id":3,"left_children":[1,3,5,7,9,11,13,15,-1,17,19,21,23,-1,25,27,-1,29,31,33,35,37,39,-1,-1,41,-1,-1,-1,-1,43,-1,-1,45,47,49,51,53,55,57,59,-1,-1,61,63,65,67,69,71,73,75,77,-1,79,81,83,-1,85,87,-1,89,91,-1,93,-1,95,97,-1,99,-1,101,103,105,107,109,111,113,-1,-1,115,117,119,121,123,-1,-1,-1,125,-1,127,-1,129,131,-1,133,-1,135,-1,-1,137,-1,139,141,-1,-1,-1,-1,143,145,147,149,151,-1,-1,-1,153,155,157,159,161,163,165,167,169,171,173,-1,175,-1,177,-1,179,181,-1,-1,183,185,-1,-1,-1,-1,-1,-1,187,189,191,193,195,197,-1,-1,-1,-1,199,201,203,205,207,209,-1,-1,211,-1,213,215,-1,217,219,-1,-1,-1,221,223,225,-1,-1,-1,-1,-1,-1,-1,-1,-1,-1,-1,-1,-1,-1,-1,-1,-1,-1,-1,-1,-1,-1,-1,-1,-1,-1,-1,-1,-1,-1,-1,-1,-1,-1,-1,-1,-1,-1,-1,-1,-1,-1,-1,-1,-1,-1,-1,-1,-1,-1,-1,-1,-1],"loss_changes":[1.093493E4,3.3962861E3,1.1751694E3,1.890039E1,1.7943837E3,2.7977922E3,1.6337402E1,1.4814453E0,0E0,4.0970343E2,2.3240033E2,5.1126172E2,6.892566E1,0E0,1.4228516E0,4.951172E-1,0E0,2.5558533E2,1.4678177E1,1.8629764E2,5.5012207E1,4.4520654E2,8.357178E0,0E0,0E0,1.7691355E1,0E0,0E0,0E0,0E0,1.6856653E2,0E0,0E0,1.6718385E2,2.9094421E1,6.75798E1,2.8534546E0,2.636333E2,1.1010445E2,1.8634521E1,3.8251953E0,0E0,0E0,7.856592E1,1.1812049E2,1.01305275E2,2.8179527E1,8.30748E0,1.8765636E1,7.6085014E1,1.0785065E1,1.9518665E1,0E0,2.4057971E2,6.659717E1,5.0677963E1,0E0,2.0164017E1,3.0532665E1,0E0,1.5667976E1,6.2601685E1,0E0,2.121257E1,0E0,7.111685E1,1.880016E1,0E0,2.3933563E1,0E0,2.4808191E1,3.8606682E0,1.9427399E1,5.751892E1,3.2804104E1,6.897278E-1,7.492474E0,0E0,0E0,2.3683392E2,1.9886536E1,6.0859795E1,1.2971558E1,1.2606171E1,0E0,0E0,0E0,1.9283993E1,0E0,1.0764172E1,0E0,4.9210083E1,9.571694E1,0E0,1.3817825E0,0E0,4.339537E1,0E0,0E0,3.0691433E-1,0E0,1.0683832E0,1.0687233E1,0E0,0E0,0E0,0E0,2.172815E1,1.2210056E1,3.0702848E1,1.929425E1,2.0169323E1,0E0,0E0,0E0,5.6698364E1,1.6124966E2,1.8029175E1,2.8755974E1,2.6439308E1,4.7832245E1,2.4950462E1,1.3322266E1,2.252466E1,3.3098755E0,5.935051E0,0E0,7.9834523E0,0E0,1.4183105E1,0E0,4.0696316E1,2.8558899E1,0E0,0E0,1.6585129E1,5.4877213E1,0E0,0E0,0E0,0E0,0E0,0E0,1.2756638E1,1.1724716E1,6.0060005E0,1.084704E1,1.0279838E1,1.9442333E1,0E0,0E0,0E0,0E0,3.98208E1,2.4724062E1,3.9725464E1,1.4260735E2,1.6200745E1,3.4903034E1,0E0,0E0,1.6812376E1,0E0,1.618998E1,3.1964828E1,0E0,2.8277822E0,1.616333E0,0E0,0E0,0E0,1.0645223E0,3.9526367E-1,9.225366E0,0E0,0E0,0E0,0E0,0E0,0E0,0E0,0E0,0E0,0E0,0E0,0E0,0E0,0E0,0E0,0E0,0E0,0E0,0E0,0E0,0E0,0E0,0E0,0E0,0E0,0E0,0E0,0E0,0E0,0E0,0E0,0E0,0E0,0E0,0E0,0E0,0E0,0E0,0E0,0E0,0E0,0E0,0E0,0E0,0E0,0E0,0E0,0E0,0E0,0E0,0E0,0E0,0E0],"parents":[2147483647,0,0,1,1,2,2,3,3,4,4,5,5,6,6,7,7,9,9,10,10,11,11,12,12,14,14,15,15,17,17,18,18,19,19,20,20,21,21,22,22,25,25,30,30,33,33,34,34,35,35,36,36,37,37,38,38,39,39,40,40,43,43,44,44,45,45,46,46,47,47,48,48,49,49,50,50,51,51,53,53,54,54,55,55,57,57,58,58,60,60,61,61,63,63,65,65,66,66,68,68,70,70,71,71,72,72,73,73,74,74,75,75,76,76,79,79,80,80,81,81,82,82,83,83,87,87,89,89,91,91,92,92,94,94,96,96,99,99,101,101,102,102,107,107,108,108,109,109,110,110,111,111,115,115,116,116,117,117,118,118,119,119,120,120,121,121,122,122,123,123,124,124,125,125,127,127,129,129,131,131,132,132,135,135,136,136,143,143,144,144,145,145,146,146,147,147,148,148,153,153,154,154,155,155,156,156,157,157,158,158,161,161,163,163,164,164,166,166,167,167,171,171,172,172,173,173],"right_children":[2,4,6,8,10,12,14,16,-1,18,20,22,24,-1,26,28,-1,30,32,34,36,38,40,-1,-1,42,-1,-1,-1,-1,44,-1,-1,46,48,50,52,54,56,58,60,-1,-1,62,64,66,68,70,72,74,76,78,-1,80,82,84,-1,86,88,-1,90,92,-1,94,-1,96,98,-1,100,-1,102,104,106,108,110,112,114,-1,-1,116,118,120,122,124,-1,-1,-1,126,-1,128,-1,130,132,-1,134,-1,136,-1,-1,138,-1,140,142,-1,-1,-1,-1,144,146,148,150,152,-1,-1,-1,154,156,158,160,162,164,166,168,170,172,174,-1,176,-1,178,-1,180,182,-1,-1,184,186,-1,-1,-1,-1,-1,-1,188,190,192,194,196,198,-1,-1,-1,-1,200,202,204,206,208,210,-1,-1,212,-1,214,216,-1,218,220,-1,-1,-1,222,224,226,-1,-1,-1,-1,-1,-1,-1,-1,-1,-1,-1,-1,-1,-1,-1,-1,-1,-1,-1,-1,-1,-1,-1,-1,-1,-1,-1,-1,-1,-1,-1,-1,-1,-1,-1,-1,-1,-1,-1,-1,-1,-1,-1,-1,-1,-1,-1,-1,-1,-1,-1,-1,-1],"split_conditions":[-4.0376896E-1,0E0,3.7707627E-2,5.567046E-1,-5.8131486E-1,1.8278322E2,-4.0224138E-1,9.7195655E-3,-1.319394E-1,6.551724E-1,-8.7534386E-1,1.4514706E0,3.0483517E2,7.019469E-2,5.2021656E-2,1.4745408E0,6.416298E-2,-5.862069E-1,-9.99001E-3,0E0,6.324555E-1,8.2758623E-1,1.6086956E0,1.8311605E-1,-1.6404185E-1,1.1015E3,-1.8390518E-1,1.8323545E-1,7.643334E-2,-1.7905235E-1,9.3433714E-1,-1.8274873E-1,5.7606373E-2,1.4205999E0,3.179523E0,1.00364126E-1,-2.7773883E0,1E0,1E0,4.526058E0,1.9302516E2,-1.744797E-1,1.420171E-1,1.6666666E0,-9.8353244E-2,2.047478E-3,-7.6265864E-2,2.5E-1,-1.8648578E-1,2.5E-1,2.6666667E0,-3.3952212E-1,-1.8592389E-1,9.39061E-2,-3.4948978E-1,6.819803E-1,-1.8137558E-1,1.0274943E0,1.5E0,-1.8387575E-1,4.042866E0,-8.7534386E-1,-1.8319781E-1,-1.854698E-1,-1.810257E-1,-3.3046508E-1,5E-1,-1.8162908E-1,1.6499838E-2,-1.8765867E-1,-1.6922976E-1,-6.542334E-2,1.6545336E0,-7.425066E-2,5.0511783E-1,-2.2641408E-1,-1.0226464E-1,1.5968165E-1,-1.73489E-1,-8.023173E-2,5.25181E0,5.5172414E-1,-4.1335163E-1,5E-1,-1.6800553E-1,-1.8539561E-1,8.646493E-2,1.24590136E-1,-1.7499074E-1,6.6057825E-1,1.21711664E-1,4.5871824E-1,2.5E-1,-1.386575E-1,1.4296798E0,-1.8197602E-1,2.4295714E-2,-1.8671277E-1,1.07747264E-1,-2.6793256E-1,-1.5806255E-1,-2.0901951E-1,7.3297095E0,1.9605383E-2,1.8250984E-1,-1.7776619E-1,1.6244839E-1,1.1380835E-1,-2.0689656E-1,-1.5522285E-1,3.7513805E1,-2.8175655E-1,-1.8514147E-1,1.3833609E-1,-1.255367E-1,2E0,-3.4359634E-1,7.5E-1,1.4438551E-4,-1.5633844E-1,-1.8668901E-3,5.9296286E-1,6.084414E0,1.7215045E-1,6.4574903E-1,-4.6367288E-2,-1.5544294E-1,-2.4604015E0,-1.8136762E-1,3.2139757E0,-1.9129422E-1,2.0097576E-1,1.7120843E-1,6.412978E-2,1.8897039E-1,-1.736559E-1,6.166628E-1,7.3041864E-2,1.7785789E-1,1.5384766E-1,4.143304E-2,-1.9150087E-1,2.3492549E-2,8.22049E-3,-2.413793E-1,-1.11176744E-1,-1.4181392E-3,-4.0987608E-1,-7.6324366E-2,-1.8677454E-1,1.489731E-1,-1.7758897E-1,1.5275887E-1,9.060805E0,-4.951733E-3,5E-1,3.3333334E-1,-1.5697983E-1,-1.0177104E-2,-1.6358818E-1,1.9345663E-1,-6.631323E-2,-1.8587606E-1,1.6103789E-1,6.521739E-2,-1.7548683E-1,5.1659446E0,-7.6326266E-2,4.4157363E-2,-1.6355902E-1,1.6562693E-1,5E-1,-7.065034E-2,0E0,1.8995221E-1,1.4649364E-1,-1.2515493E-1,1.774753E-1,1.793674E-2,1.7564751E-2,-2.2348803E-1,1.5429898E-1,-1.6168006E-1,1.8409458E-1,5.1140983E-2,-1.8566573E-1,1.354307E-1,-1.8851185E-1,-1.0447112E-1,1.4602552E-1,-1.3384147E-1,1.12639265E-2,1.7955655E-1,-1.6459143E-1,1.2404346E-1,5.026162E-2,-1.8982346E-1,-1.5563345E-1,1.3106914E-1,-1.6325356E-1,6.3988134E-2,1.6716176E-1,-1.5412073E-1,-1.9062056E-1,2.63879E-2,-4.8937015E-2,5.2608196E-2,-8.866193E-2,-1.8671477E-1,-1.8028907E-1,3.7023503E-2,-1.4140445E-1,1.7966136E-1,-1.9048542E-1,8.139932E-2,1.5915658E-1,-1.5905213E-1,2.931733E-2,1.8592916E-1,-1.343745E-1,-1.8938702E-1,2.5088599E-2,1.3062236E-1,8.38698E-2,1.9450487E-1,1.5300353E-1,-1.3617863E-1],"split_indices":[28,5,33,31,98,22,28,16,0,0,40,70,22,0,33,66,0,0,22,90,97,0,68,0,0,38,0,0,0,0,1,0,0,1,61,1,31,96,96,54,55,0,0,90,53,94,27,3,73,3,90,53,0,22,28,77,0,87,63,0,92,40,0,53,0,2,3,0,53,0,83,1,92,27,53,54,48,0,0,12,92,0,53,86,0,0,0,73,0,59,0,8,3,0,12,0,2,0,0,2,0,54,73,0,0,0,0,12,0,48,69,53,0,0,0,38,2,57,33,48,17,87,92,28,77,1,0,61,0,83,0,77,1,0,0,43,2,0,0,0,0,0,0,92,0,73,17,28,27,0,0,0,0,36,27,57,90,48,12,0,0,1,0,1,68,0,1,27,0,0,0,3,1,5,0,0,0,0,0,0,0,0,0,0,0,0,0,0,0,0,0,0,0,0,0,0,0,0,0,0,0,0,0,0,0,0,0,0,0,0,0,0,0,0,0,0,0,0,0,0,0,0,0,0,0,0,0],"split_type":[0,0,0,0,0,0,0,0,0,0,0,0,0,0,0,0,0,0,0,0,0,0,0,0,0,0,0,0,0,0,0,0,0,0,0,0,0,0,0,0,0,0,0,0,0,0,0,0,0,0,0,0,0,0,0,0,0,0,0,0,0,0,0,0,0,0,0,0,0,0,0,0,0,0,0,0,0,0,0,0,0,0,0,0,0,0,0,0,0,0,0,0,0,0,0,0,0,0,0,0,0,0,0,0,0,0,0,0,0,0,0,0,0,0,0,0,0,0,0,0,0,0,0,0,0,0,0,0,0,0,0,0,0,0,0,0,0,0,0,0,0,0,0,0,0,0,0,0,0,0,0,0,0,0,0,0,0,0,0,0,0,0,0,0,0,0,0,0,0,0,0,0,0,0,0,0,0,0,0,0,0,0,0,0,0,0,0,0,0,0,0,0,0,0,0,0,0,0,0,0,0,0,0,0,0,0,0,0,0,0,0,0,0,0,0,0,0,0,0,0,0,0,0,0,0,0,0],"sum_hessian":[1.2280363E4,6.10964E3,6.1707227E3,3.889111E3,2.2205293E3,3.966688E3,2.204035E3,3.8870034E3,2.1076055E0,1.076838E3,1.1436912E3,3.413344E3,5.5334393E2,3.2185144E0,2.2008164E3,3.8841125E3,2.8909142E0,1.0057667E3,7.107128E1,3.9343628E2,7.5025494E2,2.241798E3,1.1715459E3,5.4563074E2,7.7131767E0,1.8567036E1,2.1822493E3,3.881537E3,2.5754836E0,3.724278E1,9.685239E2,6.760944E1,3.4618347E0,2.5399867E2,1.3943759E2,3.970128E2,3.5324216E2,2.0971628E3,1.4463518E2,1.181666E2,1.0533794E3,1.6325834E1,2.2411997E0,9.0288513E2,6.563878E1,1.9110712E2,6.2891567E1,1.1897806E2,2.0459532E1,2.2815715E2,1.6885564E2,1.5237917E1,3.3800424E2,1.5029916E3,5.941713E2,1.3003674E2,1.4598445E1,8.668413E1,3.148248E1,1.0171352E3,3.624413E1,8.9367847E2,9.206701E0,2.7294617E1,3.8344166E1,1.6755122E2,2.3555887E1,5.0077217E1,1.2814349E1,8.805497E1,3.0923086E1,8.42198E0,1.2037553E1,1.5638667E2,7.177048E1,1.6458725E2,4.268391E0,2.304726E0,1.2933191E1,1.177358E3,3.256336E2,1.10211525E2,4.8395984E2,1.2423323E2,5.803508E0,8.3077194E1,3.6069305E0,1.5583517E1,1.5898962E1,3.374492E1,2.4992118E0,7.0956146E2,1.8411696E2,2.7533927E0,2.4541224E1,1.0031262E1,1.5751996E2,2.0534494E1,3.0213935E0,7.339637E0,5.474713E0,5.953331E0,2.4969755E1,3.8329623E0,4.5890174E0,9.729241E0,2.3083117E0,1.3629218E2,2.0094486E1,5.7294205E1,1.44762745E1,2.3182917E1,1.4140433E2,2.2175207E0,2.0508704E0,2.7459756E2,9.0276044E2,3.1440997E2,1.1223624E1,6.1139294E1,4.907223E1,1.8814014E1,4.651458E2,1.1046674E1,1.1318656E2,1.1828982E1,3.7545347E0,4.313545E0,2.9431374E1,7.0498114E2,4.580353E0,4.861508E1,1.3550188E2,2.7815158E0,2.1759708E1,1.27344986E2,3.0174974E1,2.8321824E0,4.5074544E0,2.2920032E0,3.6613276E0,2.1250761E1,3.7189949E0,1.2887953E2,7.4126515E0,1.3797824E1,6.2966633E0,1.013405E1,4.7160152E1,1.220084E1,2.2754343E0,2.0894121E1,2.288795E0,2.5918103E2,1.5416552E1,9.620076E1,8.0655963E2,2.719726E2,4.2437393E1,6.2057676E0,5.017857E0,7.7581153E0,5.338118E1,1.7167093E1,3.1905138E1,1.21560135E1,6.658001E0,4.6185254E2,3.2932637E0,3.8265653E0,7.220108E0,5.735345E0,1.0745122E2,4.42645E0,7.402532E0,2.2647305E0,2.0488145E0,6.965448E2,8.436347E0,3.5393112E1,1.3221971E1,1.3198633E2,3.5155396E0,1.1073738E2,1.6607605E1,1.1951177E1,1.8223797E1,8.378643E1,4.5093098E1,4.90327E0,2.5093815E0,4.6252933E0,9.17253E0,4.2127614E0,2.083902E0,3.365684E0,6.768367E0,2.8925855E0,4.4267567E1,2.4794461E2,1.1236408E1,1.1470854E1,3.9456975E0,8.207875E1,1.412201E1,3.736758E2,4.3288385E2,3.028479E1,2.416878E2,2.4225807E1,1.8211588E1,3.1841567E0,4.5739584E0,1.371947E1,3.447623E0,2.7261932E1,4.6432047E0,4.3686333E0,2.289368E0,1.9223907E1,4.4262863E2,3.5812807E0,2.1540642E0,2.5912375E0,1.0485998E2,2.2895398E0,2.13691E0],"tree_param":{"num_deleted":"0","num_feature":"103","num_nodes":"227","size_leaf_vector":"1"}},{"base_weights":[1.8946575E-3,8.6419356E-1,-8.6124396E-1,1.428198E0,-7.79857E-2,-5.423322E-1,-1.7329699E-1,1.4308555E0,-1.4466666E-1,7.864426E-1,-8.7049794E-1,-8.699432E-1,1.3932141E0,4.7938023E-2,1.4315128E0,-1.2342992E0,1.0556291E0,-1.3404291E0,-4.99118E-1,-5.511605E-3,-1.0647941E0,1.7255929E-1,-1.5386914E-1,1.4320543E0,5.2638277E-2,-1.3241085E0,1.14883274E-1,1.1270181E0,-1.1944801E0,-1.428318E0,-5.1558757E-1,1.737317E-1,-9.345594E-1,2.8602508E-1,-1.2935209E0,-1.425075E0,-8.4217566E-1,6.4431466E-2,1.727202E-1,-1.3838865E0,3.7043717E-2,1.3056343E0,5.5445254E-1,1.04619145E-1,-1.6983074E-1,-1.7418893E-1,-2.1263972E-1,2.8682455E-1,-1.7550139E-1,7.3211205E-1,-4.1797966E-1,-1.227E0,-2.8514257E-1,5.059438E-1,-1.2079806E0,1.2292745E-1,-1.3567547E0,-1.7371212E-1,-1.1382217E0,-1.8019672E-1,-1.0164744E0,-1.7446715E-1,-4.8238635E-1,1.3359939E0,-7.224614E-1,1.0719746E0,-2.9054603E-1,1.5112302E-1,-1.3957341E-1,7.0440876E-1,-1.5587386E-1,9.44071E-1,-1.7069414E-1,-1.0486964E0,3.9766738E-1,-5.1963216E-1,-1.3584652E0,-8.9917E-1,2.8715327E-1,-1.2532196E0,7.098418E-1,1.5076135E-1,-1.3350769E0,-1.7318243E-1,3.8815945E-1,-1.7089301E-1,1.0574169E0,-1.8157758E-1,1.8224126E-1,-8.3084166E-1,-1.421598E0,1.3265215E-1,-1.5256669E-1,1.3544836E0,-1.6608031E-1,1.5672621E-1,-1.7337176E-1,1.241199E0,-9.538591E-1,-1.0642792E0,2.9345655E-1,9.918342E-1,-1.2900831E-1,-9.250214E-1,1.1575471E0,-3.919133E-1,-1.8509239E-1,-5.299739E-1,8.025083E-1,1.3508381E-1,-1.8261114E-1,-1.4148588E0,3.907916E-1,4.5859146E-1,-1.1811302E0,8.357402E-1,-5.9725106E-1,-1.7214952E-1,7.386844E-2,8.4945804E-1,-1.7760466E-1,-1.7765476E-1,5.387485E-2,-1.1881053E-1,1.9074316E-1,1.8017395E-1,6.1867483E-2,5.4143447E-1,-1.3736409E0,-8.782239E-1,1.0559517E0,-1.7382574E-1,1.4596097E-3,-7.0773673E-1,1.3724992E0,1.3038965E0,-1.4027312E-1,-1.882883E-1,1.2601054E-1,-2.1141042E-1,6.0093594E-1,7.850722E-1,-1.8185651E-1,1.301198E0,-1.181092E-3,-1.676553E-1,1.0143961E-1,1.2734768E0,2.1624513E-1,-1.8450725E-1,4.4172594E-1,-1.7584226E-1,1.0094192E0,1.1067107E0,-1.4344329E-1,9.718844E-1,-1.6909558E-1,-1.4445809E0,4.869168E-2,-1.2437831E-1,1.2985638E-1,-1.3955192E-1,1.4523888E-1,-1.3063319E0,6.309877E-2,1.168424E0,-1.4749037E-1,-1.7564559E-1,3.0276436E-1,1.1430184E0,2.9832685E-1,7.9124135E-1,-1.1742573E0,9.428213E-2,-1.8463336E-1,-4.6862406E-1,-1.0757512E0,-1.488148E-1,1.4473128E0,-1.3458644E-1,1.724419E-1,1.19131416E-1,-2.0709792E-1,1.6686504E-1,-1.5215133E-1,1.6383894E-1,-1.4439362E-1,1.6378155E-1,-1.4688511E-1,-1.6444752E-1,1.3175364E-1,4.793419E-2,1.7877957E-1,1.4196353E-1,-1.327774E-1,1.5858468E-1,1.4513882E-2,-1.4740832E-1,1.6104785E-1,-7.806235E-2,1.5084493E-1,3.7944E-2,2.0749843E-1,-1.267011E-1,1.5417989E-1,-1.3210507E-1,1.6888446E-1,-1.7774405E-1,-9.597719E-2,-1.7859548E-1,-6.345456E-3,1.8061505E-1,-3.7593298E-2,1.2327567E-1,-1.4070989E-1,1.556507E-1,8.299553E-3,8.486068E-2,-6.5497205E-2,-2.4312846E-2,1.5321903E-1,-1.7100032E-1,1.3738956E-1,-1.3381311E-1,1.6082609E-1,-3.3617564E-2,-1.78161E-1,-1.3828757E-1,1.04020774E-1,1.8847887E-1,6.921058E-2],"categories":[],"categories_nodes":[],"categories_segments":[],"categories_sizes":[],"default_left":[0,0,0,0,0,0,0,0,0,0,0,0,0,0,0,0,0,0,0,0,0,0,0,0,0,0,0,0,0,0,0,0,0,0,0,0,0,0,0,0,0,0,0,0,0,0,0,0,0,0,0,0,0,0,0,0,0,0,0,0,0,0,0,0,0,0,0,0,0,0,0,0,0,0,0,0,0,0,0,0,0,0,0,0,0,0,0,0,0,0,0,0,0,0,0,0,0,0,0,0,0,0,0,0,0,0,0,0,0,0,0,0,0,0,0,0,0,0,0,0,0,0,0,0,0,0,0,0,0,0,0,0,0,0,0,0,0,0,0,0,0,0,0,0,0,0,0,0,0,0,0,0,0,0,0,0,0,0,0,0,0,0,0,0,0,0,0,0,0,0,0,0,0,0,0,0,0,0,0,0,0,0,0,0,0,0,0,0,0,0,0,0,0,0,0,0,0,0,0,0,0,0,0,0,0,0,0,0,0,0,0,0,0,0,0,0,0,0,0,0,0,0,0,0,0,0,0,0,0,0,0],"id":4,"left_children":[1,3,5,7,9,11,-1,13,-1,15,17,19,21,-1,23,25,27,29,31,33,35,-1,-1,37,-1,39,-1,41,43,45,47,49,51,53,55,57,59,-1,-1,61,-1,63,65,-1,-1,-1,67,69,-1,71,73,75,77,79,81,-1,83,-1,85,87,89,-1,91,93,95,97,99,-1,-1,101,-1,103,-1,105,107,109,111,113,115,117,119,-1,121,-1,123,-1,125,-1,127,129,131,-1,-1,133,-1,-1,-1,135,137,139,141,143,-1,145,147,149,-1,151,153,155,-1,157,159,161,163,165,167,-1,-1,169,-1,-1,-1,-1,-1,-1,-1,171,173,175,177,-1,179,181,183,185,-1,-1,-1,-1,187,189,-1,191,193,-1,-1,195,197,-1,199,-1,201,203,-1,205,-1,207,-1,-1,-1,-1,-1,209,-1,211,-1,-1,213,215,217,219,221,223,-1,225,227,-1,229,-1,-1,-1,-1,-1,-1,-1,-1,-1,-1,-1,-1,-1,-1,-1,-1,-1,-1,-1,-1,-1,-1,-1,-1,-1,-1,-1,-1,-1,-1,-1,-1,-1,-1,-1,-1,-1,-1,-1,-1,-1,-1,-1,-1,-1,-1,-1,-1,-1,-1,-1,-1],"loss_changes":[8.601385E3,3.0721538E3,1.0602402E3,2.6975098E1,1.4843668E3,2.3594922E3,0E0,1.8847656E0,0E0,5.6505646E2,1.9660187E2,5.3583936E2,5.6427734E1,0E0,1.3198242E0,2.5282684E1,1.483421E2,3.5392944E1,1.8561385E2,2.2048741E2,2.0702173E2,0E0,0E0,7.2753906E-1,0E0,1.1921295E1,0E0,9.003784E1,1.3859211E1,8.649353E0,3.7794678E1,8.27518E1,7.266058E1,1.5793222E2,1.7234604E1,2.8096924E0,1.8524329E2,0E0,0E0,5.7830505E0,0E0,4.2570557E1,9.335366E1,0E0,0E0,0E0,1.1359501E1,1.9095903E1,0E0,5.9948174E1,6.3069576E1,2.3916016E1,4.2661415E1,1.5085284E2,2.095816E1,0E0,1.5268311E1,0E0,3.584272E1,1.618052E2,9.447107E1,0E0,1.2486063E1,3.5284424E1,1.7227764E1,4.649205E1,3.7184147E1,0E0,0E0,1.2511904E1,0E0,4.8066467E1,0E0,2.142794E1,2.0642117E1,2.8289192E1,2.2516968E1,2.2919666E1,3.1168896E1,1.5136726E1,1.15628845E2,0E0,1.5250145E1,0E0,1.0426997E1,0E0,8.7253666E-1,0E0,1.4877817E2,7.912048E1,1.1386169E1,0E0,0E0,2.5569458E1,0E0,0E0,0E0,1.9971619E1,1.4697799E1,4.157878E1,4.3067715E1,6.0968E0,0E0,1.1553719E1,1.1308487E1,2.9793198E1,0E0,2.570903E1,2.4270102E1,3.6000393E1,0E0,1.2254822E1,8.663149E0,1.4380035E1,1.1072395E1,2.8439302E1,1.9613068E1,0E0,0E0,5.683116E1,0E0,0E0,0E0,0E0,0E0,0E0,0E0,9.347082E1,1.1709381E1,6.8571106E1,2.1397654E1,0E0,1.2043882E1,1.2646977E1,2.1562866E1,1.8093063E1,0E0,0E0,0E0,0E0,1.6924332E1,2.6487373E1,0E0,1.8928318E0,8.702549E0,0E0,0E0,4.3873444E0,2.232196E1,0E0,1.7107523E1,0E0,2.904241E0,1.3731922E1,0E0,1.7514776E1,0E0,2.9093323E0,0E0,0E0,0E0,0E0,0E0,9.929588E0,0E0,1.7276646E1,0E0,0E0,1.4874677E1,3.649115E1,4.2752136E1,9.027954E1,1.7335793E1,1.0120242E1,0E0,5.312454E1,8.0364746E1,0E0,1.0407104E0,0E0,0E0,0E0,0E0,0E0,0E0,0E0,0E0,0E0,0E0,0E0,0E0,0E0,0E0,0E0,0E0,0E0,0E0,0E0,0E0,0E0,0E0,0E0,0E0,0E0,0E0,0E0,0E0,0E0,0E0,0E0,0E0,0E0,0E0,0E0,0E0,0E0,0E0,0E0,0E0,0E0,0E0,0E0,0E0,0E0,0E0,0E0,0E0,0E0,0E0,0E0,0E0],"parents":[2147483647,0,0,1,1,2,2,3,3,4,4,5,5,7,7,9,9,10,10,11,11,12,12,14,14,15,15,16,16,17,17,18,18,19,19,20,20,23,23,25,25,27,27,28,28,29,29,30,30,31,31,32,32,33,33,34,34,35,35,36,36,39,39,41,41,42,42,46,46,47,47,49,49,50,50,51,51,52,52,53,53,54,54,56,56,58,58,59,59,60,60,62,62,63,63,64,64,65,65,66,66,69,69,71,71,73,73,74,74,75,75,76,76,77,77,78,78,79,79,80,80,82,82,84,84,86,86,88,88,89,89,90,90,93,93,97,97,98,98,99,99,100,100,101,101,103,103,104,104,105,105,107,107,108,108,109,109,111,111,112,112,113,113,114,114,115,115,116,116,119,119,127,127,128,128,129,129,130,130,132,132,133,133,134,134,135,135,140,140,141,141,143,143,144,144,147,147,148,148,150,150,152,152,153,153,155,155,157,157,163,163,165,165,168,168,169,169,170,170,171,171,172,172,173,173,175,175,176,176,178,178],"right_children":[2,4,6,8,10,12,-1,14,-1,16,18,20,22,-1,24,26,28,30,32,34,36,-1,-1,38,-1,40,-1,42,44,46,48,50,52,54,56,58,60,-1,-1,62,-1,64,66,-1,-1,-1,68,70,-1,72,74,76,78,80,82,-1,84,-1,86,88,90,-1,92,94,96,98,100,-1,-1,102,-1,104,-1,106,108,110,112,114,116,118,120,-1,122,-1,124,-1,126,-1,128,130,132,-1,-1,134,-1,-1,-1,136,138,140,142,144,-1,146,148,150,-1,152,154,156,-1,158,160,162,164,166,168,-1,-1,170,-1,-1,-1,-1,-1,-1,-1,172,174,176,178,-1,180,182,184,186,-1,-1,-1,-1,188,190,-1,192,194,-1,-1,196,198,-1,200,-1,202,204,-1,206,-1,208,-1,-1,-1,-1,-1,210,-1,212,-1,-1,214,216,218,220,222,224,-1,226,228,-1,230,-1,-1,-1,-1,-1,-1,-1,-1,-1,-1,-1,-1,-1,-1,-1,-1,-1,-1,-1,-1,-1,-1,-1,-1,-1,-1,-1,-1,-1,-1,-1,-1,-1,-1,-1,-1,-1,-1,-1,-1,-1,-1,-1,-1,-1,-1,-1,-1,-1,-1,-1,-1],"split_conditions":[-3.9766142E-1,0E0,5.2021656E-2,5.9593893E-3,-5.8131486E-1,1.8278322E2,-1.7329699E-1,-1.7285537E-2,-1.4466666E-1,-4.4980425E-1,-3.395701E-1,-8.119647E-1,3.0483517E2,4.7938023E-2,3.8005E3,5E-1,1.5282583E-1,-3.2051933E-1,-8.7534386E-1,9.782609E-1,-2.1100866E-2,1.7255929E-1,-1.5386914E-1,-3.1714213E-1,5.2638277E-2,6.941436E0,1.14883274E-1,-8.7534386E-1,-6.12397E-1,2.863357E-2,-4.8888236E-1,-2.5123465E-1,-3.2167324E-1,1.0811161E-1,-8.402479E-3,-2.1915317E-2,-1.7965544E-2,6.4431466E-2,1.727202E-1,3.179523E0,3.7043717E-2,1.7880948E0,-8.255199E-1,1.04619145E-1,-1.6983074E-1,-1.7418893E-1,-8.6921537E-1,-4.0376896E-1,-1.7550139E-1,8.64866E-2,1.4116095E-1,-1.5166812E-1,1E0,-1.873222E-2,-8.297448E-3,1.2292745E-1,5.5773196E0,-1.7371212E-1,7.5E0,1.1604806E0,1.0434783E0,-1.7446715E-1,-6.257088E-1,9.983684E-1,-1.21189514E-4,8.64866E-2,2.5E-1,1.5112302E-1,-1.3957341E-1,2.1278574E0,-1.5587386E-1,-9.143217E-3,-1.7069414E-1,-8.5575826E-5,2.6421098E-2,-1.7117362E-2,5.217391E-1,-1.3677637E-1,4.08382E-2,2.298603E-1,3.5E0,1.5076135E-1,4.277622E0,-1.7318243E-1,1.007169E0,-1.7089301E-1,-8.7534386E-1,-1.8157758E-1,1.1547005E0,3.1E1,5.625984E1,1.3265215E-1,-1.5256669E-1,-2.044237E0,-1.6608031E-1,1.5672621E-1,-1.7337176E-1,-3.1710872E-1,2.3258219E0,1.0906246E0,-1.0959441E-4,-8.5546464E-2,-1.2900831E-1,1.1850163E0,6.318752E-2,-1.1036921E-4,-1.8509239E-1,1.5430335E0,6.318752E-2,1.7507797E-1,-1.8261114E-1,8.482369E-3,2.6832876E-1,-1.577787E-2,2.3258219E0,4.1704065E-1,-4.0376896E-1,-1.7214952E-1,7.386844E-2,-1.774619E-2,-1.7760466E-1,-1.7765476E-1,5.387485E-2,-1.1881053E-1,1.9074316E-1,1.8017395E-1,6.1867483E-2,6.861001E1,-3.0166557E-1,-3.5629213E-1,-9.8290155E-3,-1.7382574E-1,5.1570214E-2,-1.7652145E-2,9.276674E-3,6.6746925E-3,-1.4027312E-1,-1.882883E-1,1.2601054E-1,-2.1141042E-1,-4.098674E-1,-1.7964786E-2,-1.8185651E-1,-1.1813937E-1,-6.7100845E-2,-1.676553E-1,1.0143961E-1,-4.0952632E-1,4.6978545E-1,-1.8450725E-1,-1.326067E-3,-1.7584226E-1,5E-1,-7.1660095E-1,-1.4344329E-1,-6.25E-2,-1.6909558E-1,-1.1988012E-2,4.869168E-2,-1.2437831E-1,1.2985638E-1,-1.3955192E-1,1.4523888E-1,8.4090906E-1,6.309877E-2,-8.454994E-3,-1.4749037E-1,-1.7564559E-1,-9.99001E-3,1.0227213E-1,-2.1650855E-1,-5.3652536E-2,1.747526E1,-1.7550817E-2,-1.8463336E-1,2.5490198E-1,6.0419164E0,-1.488148E-1,2.8253207E0,-1.3458644E-1,1.724419E-1,1.19131416E-1,-2.0709792E-1,1.6686504E-1,-1.5215133E-1,1.6383894E-1,-1.4439362E-1,1.6378155E-1,-1.4688511E-1,-1.6444752E-1,1.3175364E-1,4.793419E-2,1.7877957E-1,1.4196353E-1,-1.327774E-1,1.5858468E-1,1.4513882E-2,-1.4740832E-1,1.6104785E-1,-7.806235E-2,1.5084493E-1,3.7944E-2,2.0749843E-1,-1.267011E-1,1.5417989E-1,-1.3210507E-1,1.6888446E-1,-1.7774405E-1,-9.597719E-2,-1.7859548E-1,-6.345456E-3,1.8061505E-1,-3.7593298E-2,1.2327567E-1,-1.4070989E-1,1.556507E-1,8.299553E-3,8.486068E-2,-6.5497205E-2,-2.4312846E-2,1.5321903E-1,-1.7100032E-1,1.3738956E-1,-1.3381311E-1,1.6082609E-1,-3.3617564E-2,-1.78161E-1,-1.3828757E-1,1.04020774E-1,1.8847887E-1,6.921058E-2],"split_indices":[28,5,33,29,98,22,0,32,0,102,102,100,22,0,38,38,14,30,40,68,32,0,0,50,0,81,0,40,77,42,84,45,30,14,23,32,32,0,0,61,0,80,89,0,0,0,77,28,0,99,78,48,40,32,23,0,91,0,4,55,68,0,100,77,33,99,3,0,0,51,0,32,0,33,32,32,68,74,77,23,4,0,93,0,27,0,40,0,97,4,78,0,0,100,0,0,0,30,102,81,33,81,0,73,14,33,0,51,14,77,0,42,102,14,102,72,28,0,0,32,0,0,0,0,0,0,0,69,30,100,32,0,23,14,26,14,0,0,0,0,28,32,0,81,80,0,0,28,73,0,42,0,3,100,0,60,0,22,0,0,0,0,0,88,0,23,0,0,22,45,28,28,100,14,0,98,100,0,48,0,0,0,0,0,0,0,0,0,0,0,0,0,0,0,0,0,0,0,0,0,0,0,0,0,0,0,0,0,0,0,0,0,0,0,0,0,0,0,0,0,0,0,0,0,0,0,0,0,0,0,0],"split_type":[0,0,0,0,0,0,0,0,0,0,0,0,0,0,0,0,0,0,0,0,0,0,0,0,0,0,0,0,0,0,0,0,0,0,0,0,0,0,0,0,0,0,0,0,0,0,0,0,0,0,0,0,0,0,0,0,0,0,0,0,0,0,0,0,0,0,0,0,0,0,0,0,0,0,0,0,0,0,0,0,0,0,0,0,0,0,0,0,0,0,0,0,0,0,0,0,0,0,0,0,0,0,0,0,0,0,0,0,0,0,0,0,0,0,0,0,0,0,0,0,0,0,0,0,0,0,0,0,0,0,0,0,0,0,0,0,0,0,0,0,0,0,0,0,0,0,0,0,0,0,0,0,0,0,0,0,0,0,0,0,0,0,0,0,0,0,0,0,0,0,0,0,0,0,0,0,0,0,0,0,0,0,0,0,0,0,0,0,0,0,0,0,0,0,0,0,0,0,0,0,0,0,0,0,0,0,0,0,0,0,0,0,0,0,0,0,0,0,0,0,0,0,0,0,0,0,0,0,0,0,0],"sum_hessian":[1.1554598E4,5.78011E3,5.774488E3,3.6153716E3,2.164738E3,3.7180615E3,2.0564263E3,3.6121743E3,3.1972935E0,1.0353948E3,1.1293433E3,3.1803118E3,5.377498E2,2.6816308E0,3.6094927E3,1.2129165E2,9.141031E2,4.9737424E2,6.3196906E2,5.851951E2,2.5951167E3,5.3066595E2,7.083862E0,3.6070906E3,2.40215E0,1.1688655E2,4.4050956E0,8.86477E2,2.7626062E1,4.4881967E2,4.855456E1,2.4853328E2,3.834358E2,4.778201E2,1.0737507E2,9.8905286E2,1.6060638E3,2.4471927E0,3.6046433E3,1.1290115E2,3.9853957E0,6.747145E2,2.1176256E2,2.310956E0,2.5315105E1,4.4266727E2,6.152434E0,2.656911E1,2.198545E1,1.2774595E2,1.2078733E2,2.6376825E2,1.1966754E2,4.1708606E2,6.073402E1,2.4548337E0,1.04920235E2,9.340166E2,5.5036224E1,3.35163E2,1.2709008E3,1.04948166E2,7.952988E0,6.650995E2,9.614961E0,1.3116284E2,8.0599724E1,2.2834501E0,3.868984E0,2.145214E1,5.116971E0,1.16781746E2,1.0964206E1,6.79544E1,5.283293E1,4.211499E1,2.2165326E2,5.745345E1,6.2214092E1,4.2787098E1,3.7429898E2,2.551093E0,5.818293E1,1.005122E2,4.4080386E0,4.914297E1,5.8932533E0,7.127766E1,2.6388535E2,8.736393E2,3.972615E2,2.4982657E0,5.4547224E0,6.610955E2,4.003975E0,2.299194E0,7.315767E0,1.21408516E2,9.754325E0,3.4314606E1,4.6285114E1,1.8841162E1,2.6109784E0,1.1629185E1,1.0515256E2,2.9682554E1,3.827184E1,1.5958037E1,3.6874893E1,2.5921377E1,1.6193613E1,2.1491583E2,6.737421E0,9.771752E0,4.7681694E1,3.843085E1,2.3783237E1,3.934129E1,3.4458065E0,3.523721E2,2.1926867E1,5.41512E1,4.03173E0,2.1309223E0,2.277116E0,2.3008628E0,3.5923905E0,2.1492049E2,4.8964848E1,8.5275885E2,2.0880423E1,3.9171924E2,5.5422764E0,5.3937483E0,6.557018E2,1.1876947E2,2.6390438E0,7.6478276E0,2.1064975E0,2.42331E1,1.0081505E1,3.680654E1,9.478575E0,1.412905E1,4.7121124E0,9.37212E0,2.257064E0,9.330797E1,1.1844596E1,1.219467E1,1.7487885E1,9.987191E0,5.9708457E0,3.2375725E1,4.499172E0,1.7024004E1,8.897373E0,2.1166245E2,3.2533844E0,2.0288398E0,4.708581E0,2.912044E0,6.859709E0,4.463649E1,3.045204E0,3.3457485E1,4.9733686E0,1.1848828E1,1.1934409E1,2.2920955E2,1.2316255E2,1.880753E2,2.6845179E1,4.788498E0,4.417635E1,2.7854016E2,5.742187E2,2.7330718E0,1.814735E1,3.2323556E0,2.309921E0,2.0212915E0,3.3724566E0,6.5333575E2,2.366018E0,1.16663086E2,2.106383E0,7.296707E0,2.7847981E0,4.179736E0,3.2626804E1,2.8976688E0,1.1231381E1,2.2408838E0,2.4712286E0,8.99081E1,3.399871E0,5.1426744E0,6.701921E0,7.5405493E0,9.947335E0,3.7509086E0,2.219937E0,2.0136337E0,3.036209E1,2.6572094E0,1.4366794E1,2.0120601E2,1.0456435E1,3.9012157E1,5.6243353E0,2.7354908E1,6.1025763E0,8.215942E0,3.7184668E0,2.0128844E2,2.792111E1,8.3224915E1,3.9937637E1,6.1440544E1,1.26634766E2,2.4634413E1,2.2107663E0,2.482108E0,2.30639E0,2.3551418E2,4.3025993E1,5.5427295E2,1.9945724E1,1.5323584E1,2.823767E0],"tree_param":{"num_deleted":"0","num_feature":"103","num_nodes":"231","size_leaf_vector":"1"}},{"base_weights":[1.0890239E-2,1.0415995E0,-6.231019E-1,1.3099431E0,-7.700355E-1,-9.779212E-1,-1.4860132E-1,3.2699563E-2,1.3513508E0,1.1533056E0,-9.192092E-1,-6.772773E-1,-1.2926154E0,1.0907104E-1,-1.3494151E0,1.036273E0,-5.6411433E-1,1.3548608E0,-1.4375086E-1,1.350405E0,-1.2888058E-1,-1.1343418E0,8.5144885E-2,-1.2339743E0,-2.7148756E-1,-5.825249E-1,-1.301605E0,-2.0166254E-1,1.6411029E-1,-1.6446379E-1,-1.714214E-1,-4.31677E-1,1.3740014E0,-1.2224257E0,-1.7994422E-2,1.3573787E0,-1.6788267E-1,6.831569E-2,1.6843204E-1,-1.5518045E-1,-1.2309597E0,7.318376E-1,-1.1370959E0,-1.3091198E0,-6.166985E-1,-1.11689754E-1,-1.2713591E0,-1.5655287E-1,7.069619E-1,-1.2131648E0,-1.6319942E-1,4.2086485E-1,-7.7996904E-1,-1.3229172E-1,1.5829915E-1,1.4994004E-1,-1.4520007E-1,3.0259674E-2,1.7665826E-1,-1.7245057E-1,8.7759085E-2,3.3747336E-1,-1.6529053E-1,1.3593322E0,-1.3096969E-1,-1.658134E-1,5.34637E-1,-9.082737E-1,-1.3672067E0,-1.6369824E-1,1.1001586E0,5.6567132E-2,-1.6298777E-1,-1.3170422E0,7.773484E-2,1.1281776E0,-9.0506816E-1,5.899164E-2,-1.2135903E0,-1.6453852E-1,3.9952832E-1,1.565681E-1,-1.1257264E-1,-1.2347686E0,4.4104546E-1,1.0263788E0,-3.9272648E-1,-9.2913836E-1,9.024232E-1,7.460351E-1,-8.236115E-1,1.360958E0,-1.411393E-2,1.2243896E0,-1.4593424E-1,-5.358206E-2,-1.6526577E-1,-1.6695707E-1,-9.1310656E-1,-1.4125164E-1,1.3370856E0,-1.3372413E0,-4.7926155E-1,1.5840535E-1,3.7158713E-2,8.42352E-3,-1.3005636E0,-3.0653253E-1,5.304205E-1,-1.4120408E0,-5.5338466E-1,-1.3609152E-1,1.9036604E-1,-1.2721751E0,-4.262882E-1,-1.3401955E-1,2.173389E-1,1.0882552E0,-7.013857E-1,-1.372457E-1,-1.6587086E-1,-1.2979786E0,-5.9714186E-1,1.296185E0,-1.5973556E-1,1.0851619E0,-3.7569788E-1,-1.746703E-1,7.937695E-2,2.5804581E-2,1.3618501E0,1.4720037E0,1.6348222E-2,-1.6435756E-1,7.8263265E-1,8.8378474E-2,-1.5592532E-1,1.5736516E0,-1.3758916E-1,-3.3748844E-1,-1.3455765E0,1.7895913E-1,-1.5549031E-1,-7.499812E-1,1.0940396E0,-1.6811965E-1,3.971943E-2,-5.4099584E-1,8.20409E-1,-1.7392382E-1,6.603313E-1,-1.7911698E-1,-4.2058364E-1,4.8209566E-1,-1.63656E-1,-1.3222679E0,-9.046753E-1,9.556315E-1,-1.0846571E0,1.1581823E0,-4.0686592E-1,1.5621139E-1,-1.7892946E-1,1.1281948E-1,-9.2860085E-1,-1.3284899E0,-5.774386E-1,-2.8797385E-1,-1.3868554E0,-1.2695502E-1,1.393567E0,3.8855198E-1,1.614402E-1,1.2295891E-1,-1.5084162E-1,1.3625462E0,4.7845338E-2,7.648756E-2,1.9487609E-1,1.4872818E0,-1.4841141E-1,3.165669E-2,1.6825964E0,1.1043134E-1,-1.3309503E-1,-1.3522545E0,-5.7507217E-1,-1.7552142E-1,1.2048086E-1,1.6541627E-1,3.183483E-2,-1.4959577E-1,-1.0469927E0,1.2709646E0,-1.6946034E-1,8.53921E-1,-6.155466E-1,1.4880243E-1,-1.4912044E-1,1.0994152E0,-1.3309045E-1,-1.334801E0,-2.8916085E-1,-1.2350034E-1,-1.6709521E-1,-1.23003714E-1,1.9394656E-1,-1.5926917E-1,6.5919936E-2,1.1841174E0,-1.5562871E-1,8.1112826E-1,-1.5604123E-1,2.5899777E-1,-1.8302245E-1,-1.2025081E0,3.846197E-1,-1.3636792E0,-5.735021E-1,5.94392E-1,-1.5553966E-1,2.2786078E-1,-7.4010974E-1,1.2609853E-1,-1.7421821E-1,6.890218E-2,1.7063023E-1,4.980452E-4,9.72132E-2,5.1290937E-2,1.6434917E-1,4.608703E-2,1.9925624E-1,2.397827E-2,2.1857011E-1,-7.366208E-2,-1.638697E-1,-1.4203474E-1,9.1707155E-2,3.5113208E-2,-1.5502901E-1,-1.6050847E-1,2.549421E-2,1.6858368E-1,-1.5982279E-1,-1.7084906E-1,8.310933E-2,1.0920634E-1,-1.6517833E-1,-7.54742E-3,-1.9712684E-1,1.6787674E-1,3.896254E-2,-1.4135483E-1,-1.6863887E-1,1.6601765E-1,-1.417348E-1,7.356734E-2,-1.5673776E-1,1.4485954E-1,-1.8077011E-1,1.7379603E-3,1.4921999E-1,-2.6398474E-2,7.641408E-2,-1.5457484E-1,9.1583416E-2,1.3986848E-1,-1.4193676E-1,-1.311554E-1,-1.6663903E-1,-1.5557915E-1,1.7134379E-1,1.5199706E-1,-1.11586735E-1,5.667702E-2,-1.1103739E-1,-1.0922972E-1,9.553439E-2],"categories":[],"categories_nodes":[],"categories_segments":[],"categories_sizes":[],"default_left":[0,0,0,0,0,0,0,0,0,0,0,0,0,0,0,0,0,0,0,0,0,0,0,0,0,0,0,0,0,0,0,0,0,0,0,0,0,0,0,0,0,0,0,0,0,0,0,0,0,0,0,0,0,0,0,0,0,0,0,0,0,0,0,0,0,0,0,0,0,0,0,0,0,0,0,0,0,0,0,0,0,0,0,0,0,0,0,0,0,0,0,0,0,0,0,0,0,0,0,0,0,0,0,0,0,0,0,0,0,0,0,0,0,0,0,0,0,0,0,0,0,0,0,0,0,0,0,0,0,0,0,0,0,0,0,0,0,0,0,0,0,0,0,0,0,0,0,0,0,0,0,0,0,0,0,0,0,0,0,0,0,0,0,0,0,0,0,0,0,0,0,0,0,0,0,0,0,0,0,0,0,0,0,0,0,0,0,0,0,0,0,0,0,0,0,0,0,0,0,0,0,0,0,0,0,0,0,0,0,0,0,0,0,0,0,0,0,0,0,0,0,0,0,0,0,0,0,0,0,0,0,0,0,0,0,0,0,0,0,0,0,0,0,0,0,0,0,0,0,0,0,0,0,0,0,0,0,0,0,0,0,0,0,0,0,0,0,0,0,0,0,0,0,0,0,0,0,0,0],"id":5,"left_children":[1,3,5,7,9,11,13,15,17,19,21,23,25,27,29,31,33,35,-1,37,-1,39,41,43,45,47,49,51,-1,-1,53,55,57,59,61,63,-1,-1,-1,65,67,69,71,73,75,77,79,-1,81,83,-1,85,87,-1,-1,-1,-1,-1,-1,-1,-1,89,-1,91,-1,-1,93,95,97,-1,99,-1,-1,101,-1,103,105,107,109,-1,111,-1,-1,113,115,117,119,121,123,125,127,129,-1,131,-1,133,-1,-1,135,-1,137,139,141,-1,-1,143,145,147,149,151,153,-1,-1,155,157,-1,-1,159,161,163,-1,165,167,169,-1,171,173,-1,-1,-1,175,177,-1,-1,179,-1,-1,181,-1,183,185,-1,-1,187,189,-1,-1,191,193,-1,195,-1,197,199,-1,201,203,205,207,209,211,-1,-1,213,215,217,219,221,223,-1,225,227,-1,-1,-1,229,-1,-1,-1,231,-1,-1,233,-1,-1,235,237,-1,-1,-1,-1,239,241,243,245,247,249,-1,-1,251,-1,253,255,257,-1,-1,-1,-1,-1,259,-1,261,-1,263,-1,265,267,269,271,273,-1,275,277,-1,-1,-1,-1,-1,-1,-1,-1,-1,-1,-1,-1,-1,-1,-1,-1,-1,-1,-1,-1,-1,-1,-1,-1,-1,-1,-1,-1,-1,-1,-1,-1,-1,-1,-1,-1,-1,-1,-1,-1,-1,-1,-1,-1,-1,-1,-1,-1,-1,-1,-1,-1,-1,-1,-1,-1],"loss_changes":[7.134063E3,2.0222861E3,1.137905E3,1.9150293E2,1.551431E2,3.6501685E2,8.953534E2,6.931614E1,3.2934082E1,1.8568363E1,1.07902435E2,4.4693304E2,1.1296387E1,9.2737384E2,8.572327E0,2.1983746E1,2.60817E1,2.6126953E1,0E0,5.347824E-1,0E0,3.8690613E1,7.1139206E1,3.789966E1,1.8303589E2,2.4382545E1,6.9213867E0,6.879634E2,0E0,0E0,1.162583E1,1.2927332E1,3.2483597E0,1.4380779E1,2.0035995E1,1.8188965E1,0E0,0E0,0E0,3.276383E1,1.5198242E1,4.673133E1,1.1383636E1,1.2350342E1,4.7539806E1,1.8618515E2,2.5157532E1,0E0,1.0647819E1,2.5538086E1,0E0,4.5387845E2,2.4942493E2,0E0,0E0,0E0,0E0,0E0,0E0,0E0,0E0,1.628503E1,0E0,8.556641E0,0E0,0E0,3.1609503E1,4.4978905E1,8.1048584E-1,0E0,2.8759247E1,0E0,0E0,1.1887451E1,0E0,1.6585236E0,2.8875267E1,1.4797856E2,1.6613937E1,0E0,1.8224817E1,0E0,0E0,2.0343506E1,2.2619873E1,5.7211792E1,9.862903E1,1.10701416E2,7.291276E1,9.902893E0,9.359039E0,3.2841797E0,0E0,4.771038E0,0E0,4.6032784E1,0E0,0E0,8.847213E0,0E0,2.8892197E1,5.5653076E0,3.212695E1,0E0,0E0,2.1513151E1,8.984482E0,1.2827884E2,9.7065735E1,6.7702484E0,2.7568436E1,0E0,0E0,1.0945801E1,3.019054E1,0E0,0E0,5.3806824E1,3.1404972E1,6.2128918E1,0E0,8.695007E0,1.17028915E2,1.7364044E1,0E0,2.9137554E0,9.261441E0,0E0,0E0,0E0,1.8051758E0,7.775917E-1,0E0,0E0,3.8287865E1,0E0,0E0,5.644745E0,0E0,8.030427E0,2.9066162E0,0E0,0E0,2.0453705E1,2.1157637E0,0E0,0E0,7.9277885E1,3.75536E1,0E0,8.7596115E1,0E0,1.2869342E1,1.5769971E1,0E0,7.1016846E0,3.0759468E1,1.5666237E1,9.269445E0,3.2498352E1,2.6483639E1,0E0,0E0,5.7381073E1,2.7572495E1,1.01675415E1,1.684407E1,8.107631E1,2.0594666E1,0E0,3.84552E-1,1.0558015E0,0E0,0E0,0E0,1.1899414E0,0E0,0E0,0E0,2.928276E0,0E0,0E0,7.2034683E0,0E0,0E0,2.7740479E0,7.252207E0,0E0,0E0,0E0,0E0,1.1422913E2,6.279599E1,2.090039E1,2.9976906E1,3.65618E1,2.6402782E1,0E0,0E0,2.0976143E0,0E0,4.2841797E0,1.3739711E1,2.8813097E1,0E0,0E0,0E0,0E0,0E0,2.425824E1,0E0,3.5612078E0,0E0,3.9589046E1,0E0,1.0740585E1,1.8035833E1,4.9194336E-1,3.0544489E1,9.232435E0,0E0,4.57324E1,4.775596E1,0E0,0E0,0E0,0E0,0E0,0E0,0E0,0E0,0E0,0E0,0E0,0E0,0E0,0E0,0E0,0E0,0E0,0E0,0E0,0E0,0E0,0E0,0E0,0E0,0E0,0E0,0E0,0E0,0E0,0E0,0E0,0E0,0E0,0E0,0E0,0E0,0E0,0E0,0E0,0E0,0E0,0E0,0E0,0E0,0E0,0E0,0E0,0E0,0E0,0E0,0E0,0E0,0E0,0E0,0E0,0E0],"parents":[2147483647,0,0,1,1,2,2,3,3,4,4,5,5,6,6,7,7,8,8,9,9,10,10,11,11,12,12,13,13,14,14,15,15,16,16,17,17,19,19,21,21,22,22,23,23,24,24,25,25,26,26,27,27,30,30,31,31,32,32,33,33,34,34,35,35,39,39,40,40,41,41,42,42,43,43,44,44,45,45,46,46,48,48,49,49,51,51,52,52,61,61,63,63,66,66,67,67,68,68,70,70,73,73,75,75,76,76,77,77,78,78,80,80,83,83,84,84,85,85,86,86,87,87,88,88,89,89,90,90,91,91,93,93,95,95,98,98,100,100,101,101,102,102,105,105,106,106,107,107,108,108,109,109,110,110,113,113,114,114,117,117,118,118,119,119,121,121,122,122,123,123,125,125,126,126,130,130,131,131,134,134,137,137,139,139,140,140,143,143,144,144,147,147,148,148,150,150,152,152,153,153,155,155,156,156,157,157,158,158,159,159,160,160,163,163,164,164,165,165,166,166,167,167,168,168,170,170,171,171,175,175,179,179,182,182,185,185,186,186,191,191,192,192,193,193,194,194,195,195,196,196,199,199,201,201,202,202,203,203,209,209,211,211,213,213,215,215,216,216,217,217,218,218,219,219,221,221,222,222],"right_children":[2,4,6,8,10,12,14,16,18,20,22,24,26,28,30,32,34,36,-1,38,-1,40,42,44,46,48,50,52,-1,-1,54,56,58,60,62,64,-1,-1,-1,66,68,70,72,74,76,78,80,-1,82,84,-1,86,88,-1,-1,-1,-1,-1,-1,-1,-1,90,-1,92,-1,-1,94,96,98,-1,100,-1,-1,102,-1,104,106,108,110,-1,112,-1,-1,114,116,118,120,122,124,126,128,130,-1,132,-1,134,-1,-1,136,-1,138,140,142,-1,-1,144,146,148,150,152,154,-1,-1,156,158,-1,-1,160,162,164,-1,166,168,170,-1,172,174,-1,-1,-1,176,178,-1,-1,180,-1,-1,182,-1,184,186,-1,-1,188,190,-1,-1,192,194,-1,196,-1,198,200,-1,202,204,206,208,210,212,-1,-1,214,216,218,220,222,224,-1,226,228,-1,-1,-1,230,-1,-1,-1,232,-1,-1,234,-1,-1,236,238,-1,-1,-1,-1,240,242,244,246,248,250,-1,-1,252,-1,254,256,258,-1,-1,-1,-1,-1,260,-1,262,-1,264,-1,266,268,270,272,274,-1,276,278,-1,-1,-1,-1,-1,-1,-1,-1,-1,-1,-1,-1,-1,-1,-1,-1,-1,-1,-1,-1,-1,-1,-1,-1,-1,-1,-1,-1,-1,-1,-1,-1,-1,-1,-1,-1,-1,-1,-1,-1,-1,-1,-1,-1,-1,-1,-1,-1,-1,-1,-1,-1,-1,-1,-1,-1],"split_conditions":[-2.5271618E-1,-7.982355E-3,2.2138771E-1,-8.7978056E-4,-2.173913E-2,-5.0988427E-4,4.195575E-1,-2.0646849E-3,1.8056285E4,2.1158369E-1,-6.0823962E-2,-5.4221693E-2,-1.3726269E-1,4.1396967E-1,5.3391304E1,-3.2087076E-2,-8.454994E-3,6.551724E-1,-1.4375086E-1,-1.5971966E-1,-1.2888058E-1,-7.4046846E-3,4.347826E-1,-1.7285537E-2,1.6086956E0,8.695652E-2,5.8414843E-2,-8.192417E-3,1.6411029E-1,-1.6446379E-1,1.9361754E-1,-1.9811736E0,-2.745459E-1,2.43533E0,2.6718256E-1,3.064778E-1,-1.6788267E-1,6.831569E-2,1.6843204E-1,3.6322662E-1,-6.15442E-2,-6.25E-2,-2.874076E0,3.7107447E-1,-2.5175667E-1,1.1547005E0,3.527352E2,-1.5655287E-1,2.6086956E-1,6.0893526E-5,-1.6319942E-1,-5.8131486E-1,6.551724E-1,-1.3229172E-1,1.5829915E-1,1.4994004E-1,-1.4520007E-1,3.0259674E-2,1.7665826E-1,-1.7245057E-1,8.7759085E-2,1.0183387E0,-1.6529053E-1,2.2835634E0,-1.3096969E-1,-1.658134E-1,1.8056285E4,1.6083845E0,1E0,-1.6369824E-1,-3.664101E-2,5.6567132E-2,-1.6298777E-1,8.2758623E-1,7.773484E-2,5.208168E-2,-2.0633747E-3,2.5E-1,8.3651537E-1,-1.6453852E-1,3.881385E-4,1.565681E-1,-1.1257264E-1,7.9288816E-1,5.0522693E-2,-6.634109E-2,1.9850025E-2,-4.1613393E-2,-1.9788919E-2,-2.7454674E-1,4.1122404E-1,-1.1564378E-1,-1.411393E-2,-2.413793E-1,-1.4593424E-1,1.2496329E-1,-1.6526577E-1,-1.6695707E-1,-7.549977E-2,-1.4125164E-1,3.4380588E-1,-2.74555E-1,-2.3746701E-2,1.5840535E-1,3.7158713E-2,6.039739E-4,1.911528E-1,5E-1,-6.557786E-1,-5.326404E-4,-5.8098686E-1,-1.3609152E-1,1.9036604E-1,9.822898E-1,-4.2012394E-3,-1.3401955E-1,2.173389E-1,-7.3681533E-4,-2.173913E-2,1.1639993E0,-1.6587086E-1,5.3130347E-2,1.3990945E-1,7.938144E-1,-1.5973556E-1,-7.907578E-2,-7.241379E-1,-1.746703E-1,7.937695E-2,2.5804581E-2,4.9321947E0,-2.7456546E-1,1.6348222E-2,-1.6435756E-1,1.8056285E4,8.8378474E-2,-1.5592532E-1,-5.4106563E-1,-1.3758916E-1,-1.6118577E-1,1.911528E-1,1.7895913E-1,-1.5549031E-1,7.6064134E0,-2.0656313E-3,-1.6811965E-1,3.971943E-2,-1.7264736E-1,-1.7942265E-2,-1.7392382E-1,1.4685932E0,-1.7911698E-1,-3.8258575E-2,-7.9395843E-4,-1.63656E-1,1.6576377E-7,-9.093798E-2,1.4538258E0,1.6384441E0,2E0,-1.2867291E-1,1.5621139E-1,-1.7892946E-1,1.9868941E0,-7.6218285E-2,5.4437965E1,-1.5971966E-1,-9.1633055E-4,-7.6329894E-2,-1.2695502E-1,-7.6308794E-2,5.1566847E-2,1.614402E-1,1.2295891E-1,-1.5084162E-1,-6.389321E-2,4.7845338E-2,7.648756E-2,1.9487609E-1,-7.48748E0,-1.4841141E-1,3.165669E-2,-6.257557E-2,1.1043134E-1,-1.3309503E-1,-2.371134E-1,3.7577737E-2,-1.7552142E-1,1.2048086E-1,1.6541627E-1,3.183483E-2,-7.877324E-3,8.695652E-2,1.1574775E0,2.6421098E-2,3.5522762E1,2.1561038E-1,1.4880243E-1,-1.4912044E-1,5.1566847E-2,-1.3309045E-1,-1.2954421E-1,2.000023E-1,-1.5847374E-1,-1.6709521E-1,-1.23003714E-1,1.9394656E-1,-1.5926917E-1,6.5919936E-2,3.8259895E1,-1.5562871E-1,-1.6593477E-1,-1.5604123E-1,2.5E-1,-1.8302245E-1,1.3E1,-2.507441E-1,-2.742758E-1,8.530087E-1,2.7687212E-3,-1.5553966E-1,1.5678235E0,4.5472288E-1,1.2609853E-1,-1.7421821E-1,6.890218E-2,1.7063023E-1,4.980452E-4,9.72132E-2,5.1290937E-2,1.6434917E-1,4.608703E-2,1.9925624E-1,2.397827E-2,2.1857011E-1,-7.366208E-2,-1.638697E-1,-1.4203474E-1,9.1707155E-2,3.5113208E-2,-1.5502901E-1,-1.6050847E-1,2.549421E-2,1.6858368E-1,-1.5982279E-1,-1.7084906E-1,8.310933E-2,1.0920634E-1,-1.6517833E-1,-7.54742E-3,-1.9712684E-1,1.6787674E-1,3.896254E-2,-1.4135483E-1,-1.6863887E-1,1.6601765E-1,-1.417348E-1,7.356734E-2,-1.5673776E-1,1.4485954E-1,-1.8077011E-1,1.7379603E-3,1.4921999E-1,-2.6398474E-2,7.641408E-2,-1.5457484E-1,9.1583416E-2,1.3986848E-1,-1.4193676E-1,-1.311554E-1,-1.6663903E-1,-1.5557915E-1,1.7134379E-1,1.5199706E-1,-1.11586735E-1,5.667702E-2,-1.1103739E-1,-1.0922972E-1,9.553439E-2],"split_indices":[44,23,102,39,68,17,15,17,32,27,82,10,74,15,68,10,23,0,0,54,0,23,68,32,68,68,39,23,0,0,77,37,45,50,83,27,0,0,0,10,47,60,71,23,44,97,55,0,68,19,0,98,0,0,0,0,0,0,0,0,0,65,0,55,0,0,32,16,85,0,10,0,0,0,0,54,17,3,11,0,39,0,0,76,39,27,5,10,78,45,47,10,0,0,0,10,0,0,27,0,11,45,78,0,0,16,102,85,77,15,102,0,0,87,23,0,0,15,68,11,0,32,45,91,0,81,0,0,0,0,11,45,0,0,32,0,0,102,0,54,102,0,0,36,17,0,0,76,32,0,81,0,78,15,0,19,81,78,50,90,53,0,0,50,27,16,54,15,27,0,27,87,0,0,0,47,0,0,0,18,0,0,47,0,0,91,11,0,0,0,0,23,68,54,32,69,8,0,0,87,0,73,27,54,0,0,0,0,0,78,0,53,0,3,0,67,44,45,87,39,0,65,77,0,0,0,0,0,0,0,0,0,0,0,0,0,0,0,0,0,0,0,0,0,0,0,0,0,0,0,0,0,0,0,0,0,0,0,0,0,0,0,0,0,0,0,0,0,0,0,0,0,0,0,0,0,0,0,0],"split_type":[0,0,0,0,0,0,0,0,0,0,0,0,0,0,0,0,0,0,0,0,0,0,0,0,0,0,0,0,0,0,0,0,0,0,0,0,0,0,0,0,0,0,0,0,0,0,0,0,0,0,0,0,0,0,0,0,0,0,0,0,0,0,0,0,0,0,0,0,0,0,0,0,0,0,0,0,0,0,0,0,0,0,0,0,0,0,0,0,0,0,0,0,0,0,0,0,0,0,0,0,0,0,0,0,0,0,0,0,0,0,0,0,0,0,0,0,0,0,0,0,0,0,0,0,0,0,0,0,0,0,0,0,0,0,0,0,0,0,0,0,0,0,0,0,0,0,0,0,0,0,0,0,0,0,0,0,0,0,0,0,0,0,0,0,0,0,0,0,0,0,0,0,0,0,0,0,0,0,0,0,0,0,0,0,0,0,0,0,0,0,0,0,0,0,0,0,0,0,0,0,0,0,0,0,0,0,0,0,0,0,0,0,0,0,0,0,0,0,0,0,0,0,0,0,0,0,0,0,0,0,0,0,0,0,0,0,0,0,0,0,0,0,0,0,0,0,0,0,0,0,0,0,0,0,0,0,0,0,0,0,0,0,0,0,0,0,0,0,0,0,0,0,0,0,0,0,0,0,0],"sum_hessian":[1.0915349E4,4.156804E3,6.7585444E3,3.620765E3,5.3603925E2,3.8663367E3,2.8922078E3,1.1375409E2,3.507011E3,3.8098076E1,4.9794113E2,1.9789213E3,1.8874153E3,2.3819866E3,5.10221E2,4.21464E1,7.160769E1,3.502645E3,4.365982E0,3.5354626E1,2.7434502E0,4.0999155E2,8.794961E1,8.3346375E2,1.1454575E3,2.4418108E1,1.8629972E3,1.9090358E3,4.729509E2,5.0380908E2,6.411945E0,7.8308997E0,3.43155E1,3.1907242E1,3.9700447E1,3.4999429E3,2.7019503E0,2.7202158E0,3.263441E1,3.7056206E1,3.7293533E2,5.777948E1,3.017013E1,7.420123E2,9.145143E1,9.885766E2,1.5688097E2,1.5696658E1,8.721451E0,6.9836707E2,1.16463E3,9.194988E2,9.89537E2,4.109581E0,2.302364E0,2.2791817E0,5.551718E0,2.8585625E0,3.1456938E1,2.9075161E1,2.83208E0,3.2034184E1,7.666264E0,3.4975906E3,2.3522666E0,1.3025297E1,2.403091E1,1.1299222E2,2.599431E2,8.256019E0,4.9523464E1,3.4174767E0,2.6752653E1,7.3934033E2,2.6719456E0,1.2557267E1,7.8894165E1,8.5680615E2,1.3177048E2,1.4875792E2,8.123052E0,6.5632977E0,2.1581523E0,6.896143E2,8.7527485E0,5.2701056E2,3.9248822E2,9.093566E2,8.0180374E1,2.396046E1,8.073723E0,3.4938215E3,3.7690444E0,1.7436884E1,6.594025E0,4.0061565E1,7.293065E1,2.4831856E2,1.1624545E1,4.3047223E0,4.5218742E1,7.2135223E2,1.7988123E1,9.748414E0,2.8088536E0,2.413267E1,5.4761494E1,4.828085E2,3.7399765E2,1.0044041E2,3.1330065E1,3.556834E0,4.5662174E0,6.585704E2,3.1043955E1,4.175241E0,4.577507E0,5.0914664E2,1.7863922E1,3.1242688E2,8.0061356E1,4.29397E2,4.7995963E2,6.848987E1,1.1690506E1,1.8423267E1,5.537193E0,5.6943355E0,2.3793879E0,2.9029133E0,3.4909187E3,1.3919395E1,3.5174892E0,1.5366432E1,2.4695133E1,2.006583E0,9.617962E0,4.1611603E1,3.607137E0,6.3074903E0,7.1504474E2,5.012052E0,1.297607E1,1.4389452E1,9.743218E0,5.1918476E1,2.8430169E0,4.0008884E2,8.271965E1,2.2481026E1,3.5151663E2,9.304186E1,7.398545E0,1.3868275E1,1.746179E1,5.7728436E2,8.128603E1,9.871697E0,2.1172256E1,4.8661298E2,2.2533632E1,4.845233E0,1.3018689E1,2.3805869E2,7.4368195E1,4.111434E2,1.8253601E1,3.4590472E2,1.3405492E2,2.335615E0,6.615426E1,5.59565E0,1.2827617E1,2.0708423E0,3.4663506E0,3.4879907E3,2.9279532E0,2.8381696E0,1.1081226E1,1.8486887E1,6.2082458E0,3.4540372E0,3.8157566E1,2.3192856E0,3.9882047E0,7.0815216E2,6.892598E0,1.0372293E1,4.0171585E0,6.810155E0,2.9330633E0,2.2632045E2,1.7376839E2,5.665033E1,2.6069319E1,3.0549448E2,4.6022137E1,2.2747483E0,5.1237965E0,1.0203392E1,3.664883E0,5.700765E2,7.207883E0,3.1463627E1,4.9822407E1,2.3122528E0,7.559445E0,1.8659779E1,2.5124795E0,4.820247E2,4.588316E0,9.533346E0,1.3000286E1,2.192472E2,1.8811483E1,6.160345E1,1.2764743E1,3.920635E2,1.9079897E1,6.965249E0,1.1288353E1,1.6180266E2,1.8410205E2,2.7295568E0,1.3132536E2,2.397698E0,6.3756557E1,3.4398742E0,2.155776E0,2.4674773E0,3.4855232E3,2.8368306E0,1.5650057E1,3.281984E0,3.4875584E1,7.3151956E0,7.00837E2,4.830214E0,2.062384E0,1.6359326E2,6.2727196E1,1.4170413E2,3.2064243E1,5.444379E1,2.2065372E0,1.0363688E1,1.5705631E1,2.991173E2,6.377184E0,3.0525572E1,1.5496565E1,6.831742E0,3.3716502E0,1.6635266E2,4.037238E2,2.3108225E0,4.8970604E0,1.9675232E1,1.1788394E1,4.7948108E2,2.5436072E0,3.6843505E0,5.848995E0,9.654247E1,1.2270472E2,5.953734E1,2.0661135E0,8.70169E0,4.0630527E0,2.8271372E1,3.6379214E2,1.4295321E1,4.7845755E0,4.961084E0,2.004165E0,1.3411644E2,2.7686228E1,1.6649472E2,1.760733E1],"tree_param":{"num_deleted":"0","num_feature":"103","num_nodes":"279","size_leaf_vector":"1"}},{"base_weights":[-1.8672592E-3,7.958693E-1,-7.5400305E-1,1.2574303E0,-1.7546032E-1,-4.6647477E-1,-1.2134924E0,1.2823447E0,-4.617827E-1,4.416065E-1,-7.880529E-1,-7.562643E-1,1.0856432E0,-8.559452E-1,-1.2794889E0,1.2920772E0,-6.229391E-1,9.927681E-1,-1.5699112E-1,-1.2892472E0,6.1797035E-1,-9.4451755E-1,6.1392254E-1,-1.0864561E-1,-9.278855E-1,1.5761127E-1,-9.761241E-1,-2.561495E-1,-1.2684047E0,-1.1222252E0,-1.5667996E-1,1.2979225E0,-6.4558053E-1,6.366958E-1,-1.6063078E-1,3.916783E-3,1.5091182E-1,-1.6325818E-1,5.958402E-2,7.728595E-1,-7.045811E-1,-4.2439917E-1,-1.1935349E0,1.1720486E0,-1.5378737E-1,3.079235E-1,-1.230799E0,-9.772978E-1,3.7106884E-1,-1.5584052E-1,-5.4962885E-2,-1.6728416E-1,3.6507568E-1,-1.5788545E-1,1.2391213E-1,-1.1641412E0,1.8132125E-1,-1.3449802E-1,1.30061E0,-1.5471344E-1,1.4096989E-1,1.3219544E-1,2.3329046E-2,8.784762E-1,-8.673148E-1,3.231378E-2,-1.6036955E-1,3.9926627E-1,